<?xml version="1.0"?>
<opencv_storage>
<my_svm type_id="opencv-ml-svm">
  <svm_type>C_SVC</svm_type>
  <kernel><type>LINEAR</type></kernel>
  <C>10.</C>
  <term_criteria><epsilon>1.1920928955078125e-007</epsilon>
    <iterations>2147483647</iterations></term_criteria>
  <var_all>8664</var_all>
  <var_count>8664</var_count>
  <class_count>2</class_count>
  <class_labels type_id="opencv-matrix">
    <rows>1</rows>
    <cols>2</cols>
    <dt>i</dt>
    <data>
      0 1</data></class_labels>
  <sv_total>1</sv_total>
  <support_vectors>
    <_>
      5.83150191e-003 -1.35390460e-003 -2.93470250e-004 -6.61166199e-003
      -7.47314002e-003 -6.32301599e-005 8.15319084e-003 1.59657490e-003
      2.50453502e-003 -6.39364123e-003 -8.40154197e-003 3.06311762e-003
      2.93528894e-003 6.79855235e-004 4.12200764e-003 -1.08848442e-003
      -2.09764671e-003 -1.13305391e-003 3.99103994e-003 2.19189259e-003
      6.26272522e-003 -6.42627757e-003 -7.86997285e-003 -2.31180456e-003
      7.57844606e-003 4.67842096e-004 -3.79568199e-004 -8.79987236e-003
      -1.32189319e-002 2.20893556e-003 7.21030915e-003 -8.09620324e-005
      1.42841949e-003 -3.70199513e-003 -1.31232161e-002 1.86200975e-003
      5.52218501e-003 -1.95002765e-003 6.80438709e-004 -7.41031300e-003
      -1.18882945e-002 -8.56230559e-004 6.82616839e-003 2.97903712e-003
      -8.31515295e-004 -5.08813281e-003 -1.15156369e-002
      -1.98751362e-003 3.93734314e-003 -3.20256897e-003 1.52951747e-003
      -4.70789801e-003 -9.73967183e-003 3.14404722e-003 1.62287557e-003
      -1.13356233e-004 -6.44075568e-004 -6.60936115e-003
      -7.39901513e-003 4.15867800e-003 3.99116799e-003 4.13317699e-004
      2.82326015e-003 -3.63778882e-003 -6.94147171e-003 -9.65970452e-004
      -1.26449473e-003 1.28304324e-004 -1.44015229e-003 -5.18078310e-003
      -8.25091545e-003 2.32964568e-003 2.61219055e-003 4.20838653e-004
      6.73735456e-004 -5.43586956e-003 -4.68793325e-003 8.17789324e-003
      1.99598508e-004 1.69746473e-003 -3.78483499e-004 -1.02419062e-002
      -3.58079188e-003 4.19183448e-003 -3.30593018e-003 -1.14493235e-003
      -2.25398038e-003 -4.30141389e-003 -1.94152398e-003 4.96793073e-003
      -1.14886009e-003 -2.34625791e-003 -1.94663031e-003
      -8.76388047e-003 -4.12273686e-003 1.62800960e-003 3.86758428e-003
      3.84506257e-003 3.04124621e-003 -6.07764395e-003 -2.29823776e-003
      3.24158138e-003 1.18426362e-003 9.02305415e-004 5.24094503e-004
      -3.52215976e-003 -7.75038125e-003 -2.70651141e-003 5.28215012e-003
      2.04430195e-003 2.79516610e-003 -2.75460025e-003 -3.13050346e-003
      2.31536734e-003 5.68105653e-003 -1.31740910e-003 1.79532962e-003
      -5.58646955e-003 -1.21325245e-002 -3.94600909e-003 3.33436974e-003
      5.35865361e-003 3.60528240e-003 -4.22256254e-003 -8.54532886e-003
      -5.96773403e-004 2.89848284e-003 1.19096329e-002 5.33292163e-003
      -5.46141854e-003 -9.90450941e-003 -4.68089618e-003 9.73528344e-003
      6.96147699e-003 5.33894403e-003 -4.75709839e-003 -9.36787855e-003
      -3.69195215e-004 3.32597177e-003 7.71673489e-003 3.13348183e-003
      -3.74433375e-003 -8.00515618e-003 -6.46548206e-003 6.16919110e-003
      9.75665357e-003 3.75959766e-003 -3.87970335e-003 -4.87275654e-003
      -3.82883591e-003 3.03790229e-003 7.51681719e-003 4.35068272e-003
      -5.08800428e-003 -6.68293424e-003 -5.60178794e-003
      -1.45000956e-006 4.53361496e-003 2.83976994e-003 6.88502696e-005
      -5.50352270e-003 -6.11667149e-003 2.72398931e-003 1.92427798e-003
      3.55057465e-003 -1.53089117e-004 -4.88051493e-003 -6.04391703e-003
      5.58161223e-003 5.89744933e-003 2.44530151e-003 -1.65103411e-003
      -6.10698154e-003 -6.31430279e-003 4.52247309e-003 3.92817333e-003
      2.69906898e-003 -2.49956641e-003 -3.05992784e-003 -5.82205784e-003
      3.57112405e-003 4.66157123e-003 3.47658410e-003 1.38104917e-003
      -4.17018542e-003 -9.82272439e-003 4.80877236e-003 5.80102159e-003
      1.57937012e-003 -1.90703070e-003 -3.36062629e-003 -7.63248885e-003
      -3.67821049e-005 -2.54446780e-003 2.27071065e-003 -6.33600430e-005
      -8.38904059e-004 -4.52586869e-003 3.20385559e-003 -3.95287469e-004
      6.71188533e-003 3.27201723e-003 -5.72114484e-003 -3.93496454e-003
      4.97221295e-003 2.60245916e-003 3.68159474e-003 -5.58566302e-004
      -8.55058711e-003 -5.22388285e-003 1.51642447e-003 3.55524011e-003
      7.18338741e-003 1.98090624e-004 -6.94379723e-003 -4.15697834e-003
      1.97799131e-003 1.21876691e-003 6.76625827e-003 4.85606631e-003
      -7.74105173e-003 -5.80786215e-003 5.62362932e-003 4.43952018e-003
      4.10781987e-003 1.12325768e-003 -9.15557332e-003 -5.12159010e-003
      1.58434862e-003 2.79255048e-003 6.39544288e-003 1.45865849e-003
      -8.47205799e-003 4.81428433e-005 3.33120092e-003 7.85226841e-003
      8.60385131e-003 7.39497831e-004 -1.11481212e-002 -2.55700550e-003
      2.16405629e-003 3.09037813e-003 3.74540547e-003 -1.71166277e-004
      -7.27859931e-003 -1.98315363e-003 1.72344479e-003 -7.47329497e-004
      2.58858199e-003 2.07039388e-003 -4.24355676e-004 2.97515420e-004
      -5.44755429e-004 4.63488325e-003 7.07005477e-003 7.70685088e-004
      -1.05554042e-002 -5.54088678e-004 1.81992888e-003 4.41727054e-004
      2.68899836e-003 2.34830333e-003 -9.72267822e-004 4.37551847e-004
      -2.24074651e-003 -2.44699721e-003 2.59418064e-003 -7.57470552e-004
      -2.08549411e-003 -1.57576590e-003 -1.10783777e-003 9.78008102e-005
      4.74659866e-003 3.48940142e-003 -1.95993623e-003 -6.56229560e-004
      -8.92392884e-004 1.23213977e-003 4.64202277e-003 -2.61577661e-004
      -2.84173363e-003 -3.27466009e-003 -2.54348060e-003 5.16812410e-003
      8.07295181e-003 2.36951630e-003 -6.48671854e-003 -2.14511249e-003
      -7.17837038e-003 2.91913864e-004 3.11918347e-003 3.68127483e-003
      -5.19318879e-003 -6.72314363e-003 -5.41238813e-003 2.88125314e-003
      5.37687726e-003 2.67196633e-003 -2.25513708e-003 -5.49912453e-003
      -3.26355663e-003 2.77978787e-003 6.31605182e-003 -1.59581390e-003
      -8.94166809e-003 -1.66071916e-003 -6.37570221e-004 4.83902032e-003
      3.58453626e-003 -2.03033001e-003 -2.62683397e-003 2.05500983e-004
      -2.97814352e-003 8.11855833e-004 2.21717381e-003 -7.91546365e-004
      -6.76150841e-004 -5.93463238e-003 -4.31467080e-003
      -4.35021846e-003 -6.08136645e-004 2.88219308e-003 2.44860793e-003
      -2.82702758e-003 -4.10780136e-004 5.27882250e-003 3.67880042e-004
      -1.82251690e-003 -2.13649037e-004 -2.24989117e-003
      -2.46656802e-003 -3.40717379e-004 1.17020553e-003 2.45159701e-003
      -9.68019187e-004 -4.90690209e-003 -4.93346946e-003
      -1.06153695e-003 1.48985942e-003 3.87172610e-003 2.56251823e-003
      -2.72535137e-003 -7.52021500e-004 4.85543767e-003 -8.83412780e-004
      3.38622485e-004 -3.81095125e-003 -4.98100510e-003 -5.08038653e-003
      3.68410518e-004 6.31933101e-003 3.50198057e-003 -2.72810948e-003
      -5.92483999e-003 -6.57588756e-003 1.51410315e-003 1.68401189e-003
      -4.49156592e-004 -7.85294082e-003 -8.85967445e-003
      -1.15157710e-003 3.03773442e-003 3.65815195e-003 4.62325290e-003
      -4.07601427e-003 -2.29175508e-004 -3.12791229e-003
      -2.80402694e-003 -1.93401449e-003 1.08670222e-003 -7.05326488e-003
      -2.32810434e-003 -2.68014311e-003 2.78051547e-003 2.47344095e-003
      1.43851887e-003 -2.14434345e-003 -1.66837487e-003 -3.15791694e-003
      -1.95802259e-003 -3.21910135e-003 5.41088579e-004 -1.98251987e-003
      -2.82118446e-003 3.34850367e-004 -1.29375525e-003 -7.92705323e-005
      3.29102390e-004 -3.70736211e-003 -1.87115604e-003 2.64956756e-003
      1.66454085e-003 -3.79085355e-003 -1.84914540e-003 -4.01990116e-003
      2.22037011e-003 8.14854575e-004 6.51381386e-004 -8.59193795e-004
      2.31408339e-004 -5.61848423e-003 -2.06979644e-003 7.50556728e-003
      -7.75531735e-005 -4.40545613e-003 -2.10890523e-003
      -4.17242153e-003 2.08233227e-003 2.06143619e-003 -1.37099705e-003
      1.25652517e-003 -1.13801553e-003 -4.99082636e-003 6.08063652e-004
      -1.04663115e-004 -3.24784312e-003 2.68655992e-003 2.78360501e-004
      -5.11061959e-003 -6.54095958e-004 7.30105862e-003 -2.85156607e-003
      -2.18278379e-003 -4.59846604e-004 -6.38919184e-003 1.04726688e-003
      4.63455683e-003 -5.19856997e-003 2.21546070e-004 -6.96265139e-004
      -8.12051818e-003 -2.75843428e-003 3.38902522e-004 -1.99186429e-003
      -2.04994064e-003 4.73756409e-005 7.12909023e-005 -4.48475505e-004
      -3.02973413e-003 -4.57396079e-003 -5.81810251e-004 2.82156700e-003
      6.60747057e-003 5.21589629e-003 7.24408077e-004 -6.01069676e-003
      -3.01060639e-003 -2.35948028e-004 -4.57109557e-003
      -2.62951385e-003 -1.55221415e-003 -4.95619513e-003
      -7.73054606e-004 1.42043643e-003 1.67236838e-003 -1.02180953e-003
      1.83152349e-003 3.69251752e-003 2.61948025e-003 -1.89025817e-003
      -7.17376219e-003 -1.55480241e-003 7.49202864e-003 4.98322723e-003
      5.51196327e-003 -5.61846886e-003 -7.09800422e-003 -2.82068271e-003
      3.01315472e-003 1.33544626e-003 -1.53999333e-003 -5.31473150e-003
      -8.13522376e-003 -2.52940040e-003 6.83888886e-003 3.90675198e-003
      -1.23435003e-003 -8.11798405e-003 -8.64859764e-003
      -1.64115638e-003 7.27417180e-003 8.21832044e-004 -3.03105946e-004
      -6.47524092e-003 -9.65763908e-003 -9.27604677e-004 3.71434516e-003
      2.95378943e-003 3.82799492e-003 -3.83325038e-003 -1.13207400e-002
      -3.31302849e-003 6.08713552e-003 1.61671184e-003 -2.89614400e-004
      -5.28476713e-003 -9.36421566e-003 2.47706717e-004 3.02598090e-003
      2.06524110e-003 4.31801239e-003 -4.67203092e-003 -6.43462315e-003
      -3.57037154e-003 2.85601383e-003 4.23656823e-003 5.52665396e-003
      -5.71036071e-004 -7.42381299e-003 -2.37153750e-003 2.58867070e-003
      3.04001756e-003 -1.57468230e-003 -5.44172432e-003 -5.64605324e-003
      2.50584097e-004 -2.37193555e-004 3.02540860e-003 2.99356785e-003
      -2.87352665e-003 -3.75010027e-003 -4.78544272e-003 4.03447915e-003
      5.99564658e-003 -1.41957193e-003 -5.36014372e-003 -6.11931691e-003
      -2.67403247e-003 2.54027778e-003 2.40649446e-003 -2.91245151e-003
      -6.76020514e-003 8.94728801e-005 4.59981756e-003 1.85518572e-003
      3.90678551e-003 -5.34997461e-003 -1.16613470e-002 -2.36614374e-003
      1.02634809e-003 5.62355481e-003 8.25690106e-003 -2.61491328e-003
      -8.09318107e-003 -5.15369512e-003 7.97325047e-004 1.31246378e-003
      7.32589327e-003 -3.49757634e-003 -1.07853143e-002 -3.57294804e-003
      -3.37511208e-003 4.30669263e-003 2.99700070e-003 -2.03122594e-003
      -7.08000362e-003 -5.45458728e-003 1.96370669e-003 4.61126491e-003
      9.92848771e-004 1.42089347e-003 -6.01852965e-003 -1.81207843e-002
      -3.29029723e-003 2.23793788e-003 6.83186715e-003 8.29644618e-004
      -6.37137285e-003 -2.70594773e-003 -1.59896002e-003
      -4.90397040e-004 1.36447488e-003 4.00983775e-003 -4.47435025e-003
      -1.10502029e-002 -1.24817272e-003 1.00669703e-002 5.51610533e-003
      3.43315653e-003 -2.16624700e-003 -1.09101366e-002 2.17657303e-003
      5.51472604e-003 1.25452620e-003 -5.06410282e-003 -4.66778222e-003
      -9.94982291e-003 -3.36496998e-003 7.03682750e-003 5.75683778e-003
      6.09798683e-003 -2.35376600e-003 -5.43859182e-003 1.93841988e-003
      5.59527101e-003 -3.59631813e-005 -3.21071595e-003 -7.12385634e-003
      -6.60546217e-003 4.28167870e-004 2.62845471e-003 -7.88376128e-005
      1.58736529e-003 2.30842899e-003 -2.12976406e-003 -4.09803446e-003
      3.94346798e-003 2.15451047e-003 4.06947685e-003 2.73641013e-003
      -4.23646672e-003 -6.93871453e-003 4.36430378e-003 1.58461113e-003
      1.64344790e-003 -1.11857487e-003 -3.84446327e-003 -4.88898531e-003
      1.01140828e-003 5.74270636e-003 3.81238619e-003 -1.12277025e-003
      -1.12070115e-002 -9.80776548e-003 6.08203514e-003 4.77387849e-003
      3.26058082e-003 -1.08464330e-004 -2.05165078e-003 -1.11085745e-002
      5.32909669e-003 6.21369621e-003 3.94699257e-003 4.77509107e-004
      -3.74315446e-003 -8.77453294e-003 1.60656893e-003 6.79552369e-003
      5.50871901e-003 -7.13985879e-004 -1.01631731e-002 -1.18485764e-002
      -1.49933528e-003 7.13141402e-003 5.61626628e-003 -1.32891536e-003
      -8.47193412e-003 -1.05118407e-002 5.30481152e-003 3.51390475e-003
      2.27795169e-003 1.98646728e-003 -7.01816706e-003 -9.05351900e-003
      6.65490981e-003 4.93760873e-003 4.21081251e-003 3.85067333e-003
      -5.26683684e-003 -4.33959067e-003 2.07886077e-003 4.14235797e-003
      6.30284951e-004 2.39663362e-003 -7.91155361e-003 -5.50962146e-003
      2.95416219e-003 5.21380594e-003 2.96204747e-003 6.69912715e-003
      -9.39652044e-003 -7.71979662e-003 4.64851921e-003 5.00470633e-003
      6.25880994e-003 3.70117975e-003 -4.68688784e-003 -6.21148106e-003
      5.73024573e-003 9.91879776e-003 1.04905311e-002 2.09031510e-003
      -9.42747574e-003 -4.69002454e-003 4.03195649e-004 5.20997541e-003
      9.61925928e-003 5.01875207e-003 -1.04743047e-002 -1.19611463e-002
      1.12550835e-004 7.35285971e-003 9.80849750e-003 2.29573762e-003
      -9.84549895e-003 -1.13805449e-002 2.02247058e-003 4.34531551e-003
      6.39373017e-003 1.69670500e-003 -8.90352856e-003 -4.20323340e-003
      -3.97213473e-004 -2.60179251e-004 2.30637169e-003 5.50844893e-003
      4.92972322e-004 -2.07895203e-003 8.19800829e-004 3.39595694e-003
      4.71611880e-003 2.60389899e-003 -6.83004223e-003 -7.39769358e-003
      -3.93126393e-003 9.33774514e-004 2.10810336e-003 3.95817542e-003
      -1.68421690e-003 -5.72633650e-003 -7.95154134e-004 1.41446944e-003
      6.08280906e-003 2.50628131e-004 -1.60884089e-003 -3.76965106e-003
      8.41125264e-004 8.56255740e-003 9.03949142e-003 -1.72988256e-003
      -4.47977940e-003 -1.91874697e-003 -3.30530945e-003
      -2.53754575e-003 4.16719448e-003 2.33882875e-003 -3.85100115e-003
      -8.22189543e-003 -8.86378053e-004 3.94066656e-003 1.15993544e-002
      4.27406514e-003 -2.59098131e-003 -8.07097647e-003 2.46712286e-003
      5.24996594e-003 6.90635899e-003 -2.47183815e-003 -6.69472013e-003
      -1.24325475e-003 3.08514526e-003 5.08654350e-003 4.47154604e-003
      2.82488973e-003 -3.18722404e-003 1.30513345e-003 1.85739226e-003
      4.70036827e-003 6.72814064e-003 1.24832999e-003 -7.30630383e-003
      -8.66392627e-003 3.62773775e-003 7.64250895e-003 7.09110918e-003
      -2.84546350e-005 -7.42903026e-003 -6.96347700e-003
      -9.34592623e-004 5.03474614e-003 5.00485068e-003 2.02182191e-003
      -1.27889798e-003 -3.65236215e-003 -7.49130617e-004 4.60709166e-003
      7.92254787e-003 2.76315026e-003 -5.60082030e-003 -4.52546263e-003
      -4.60795236e-005 7.56290089e-003 5.66049619e-003 -8.15942534e-004
      -7.74555234e-003 -9.90137737e-003 -2.22656946e-003 5.78612136e-003
      6.68453518e-003 -1.76836722e-004 -9.81543027e-003 -1.11779682e-002
      -1.73064589e-004 3.39768175e-003 8.65979120e-003 3.11348238e-003
      -5.82903763e-003 -5.38117578e-003 -2.43750587e-003 2.81470898e-003
      4.35550604e-003 2.14361702e-003 -5.05202776e-003 -3.27893114e-003
      -3.39714508e-003 3.90314218e-003 6.37853891e-003 -1.23962993e-004
      -6.93791592e-003 -1.18979402e-002 -8.62092897e-003 4.36260458e-003
      8.10349174e-003 2.98890518e-003 -4.28393995e-003 -1.37125719e-002
      1.21165137e-003 1.79403496e-003 3.76801589e-003 2.81208311e-003
      8.99361796e-004 -5.20956295e-004 2.18958152e-003 -1.05581421e-003
      -4.91552521e-003 -1.36317953e-003 -3.69798532e-003
      -1.34643528e-003 -5.27893368e-004 3.57701839e-003 6.00371556e-003
      5.46977855e-003 -1.59151363e-003 -7.06685241e-003 -4.94575419e-004
      -1.79992127e-003 -2.36621266e-003 5.22475643e-003 -3.40417703e-003
      -6.14309264e-003 4.05848073e-003 -3.08998686e-004 -1.20401406e-003
      6.40391547e-004 -3.03075183e-003 3.46678280e-004 8.43430217e-003
      6.09032635e-004 1.24823721e-003 3.18973325e-004 -3.96430446e-003
      1.84766529e-003 4.06568986e-004 -4.34329594e-003 1.34319428e-003
      3.66266957e-003 -6.25500781e-003 -3.12442798e-003 1.03927602e-003
      -1.18749100e-004 4.80837096e-003 2.24140845e-003 -4.78789909e-003
      -4.81482549e-003 8.82770680e-003 -4.74744011e-004 2.35938816e-003
      2.53911479e-003 -4.49881284e-003 1.77200616e-003 6.90748822e-003
      -1.35300728e-003 -2.61009438e-004 1.30878529e-003 -5.81066357e-003
      -2.32476741e-004 2.25388422e-003 1.11481466e-003 2.84762308e-003
      1.17597065e-003 -5.39536169e-003 -3.30682681e-003 1.62603683e-004
      -2.44382769e-003 -5.06486977e-004 7.60053299e-005 -6.40499545e-003
      -2.98381969e-003 3.09348362e-003 -2.04580650e-003 1.74926722e-003
      4.15497692e-003 -2.72683520e-003 -3.13642202e-004 7.70418905e-004
      -2.81090802e-003 2.30775890e-003 6.58881571e-003 3.45023815e-003
      1.50149490e-003 4.80622752e-004 -1.94092048e-003 8.47613614e-004
      2.31817947e-003 -6.78963866e-003 -2.28658691e-003 9.17623809e-004
      -2.93165119e-003 -1.19829993e-003 2.70650908e-003 -1.80508720e-003
      -4.50531766e-003 7.10801082e-003 2.66422774e-003 -9.75630537e-004
      -5.56739792e-003 -4.37949179e-003 4.99501638e-003 7.04490067e-003
      1.79048372e-003 -7.10940920e-004 -5.98944351e-003 -2.60440540e-003
      4.09946311e-003 5.80984913e-003 -3.41225346e-003 -3.54656042e-003
      -1.03628021e-002 -8.95013195e-003 2.71600182e-003 4.78820235e-004
      -2.23470433e-003 -3.35472566e-003 -6.02260511e-003
      -6.40060846e-003 4.46876395e-004 3.50840623e-003 2.24616937e-003
      9.91964713e-004 -3.35039571e-003 -5.77953551e-003 2.38311663e-003
      1.37030717e-003 4.56321239e-003 5.01528196e-003 -2.51151831e-003
      -3.06960358e-003 -3.28463409e-003 -2.82060076e-003
      -1.60478789e-003 1.85169082e-003 -5.27383108e-003 -9.41530522e-003
      -3.09212203e-003 -1.10770576e-003 2.82153231e-003 6.32443978e-003
      -2.45313044e-004 -5.90227032e-003 -8.01987015e-003 1.07057637e-003
      4.52341232e-003 2.11131270e-003 -1.01764299e-005 -2.46861088e-003
      -3.62275611e-003 2.85486411e-003 5.93940169e-003 -4.02823370e-003
      -2.51797517e-003 -3.68910981e-003 -1.20002916e-003 3.41599487e-004
      4.52506356e-003 5.80188725e-003 1.24553859e-003 -4.28204937e-003
      -8.49616900e-003 -7.80178292e-004 -1.57954358e-003 1.70384883e-003
      2.02289084e-003 -4.00451291e-003 -4.83583054e-003 6.65031839e-003
      5.93087543e-003 -2.62120948e-003 -2.15381547e-003 -1.90343102e-003
      -1.19879900e-004 4.00369568e-003 6.01105765e-003 2.30648657e-004
      -3.41584859e-003 -1.99056626e-003 -4.40566847e-003
      -1.15302655e-005 -6.65075204e-004 3.81273217e-003 3.35223926e-003
      5.42869093e-004 -5.07266785e-004 -2.18840013e-003 4.25993046e-003
      1.65254925e-003 8.75690312e-004 -5.71872573e-003 -3.48022394e-003
      4.59150499e-004 5.18147415e-003 2.24348181e-003 -1.84843095e-003
      -1.47533690e-004 -2.10468960e-003 -3.75648262e-004 1.83436286e-003
      4.97018080e-003 -6.91901543e-004 -5.96475927e-003 -4.50524315e-003
      -2.50710151e-003 5.96091989e-003 4.80322726e-003 1.74172397e-003
      -4.55851573e-003 -5.36136422e-003 -1.18925388e-003 5.93484007e-003
      5.57883782e-003 -8.28572491e-004 -6.98964344e-003 -9.97529831e-003
      2.43925373e-003 6.01601833e-003 5.56098809e-003 -7.58154318e-004
      -5.04158111e-003 -3.57587566e-003 3.57245444e-003 1.99494348e-003
      -5.32151293e-003 -6.65115612e-003 -3.77944810e-003
      -3.68563319e-003 2.85415980e-003 8.16154294e-003 5.28320484e-003
      3.06760566e-003 -4.90909489e-003 -5.44721074e-003 5.91792213e-003
      8.67738621e-004 -1.57308299e-003 3.61042272e-004 -7.17774127e-003
      -2.82589928e-004 6.72115525e-003 5.98805118e-003 -2.59209686e-004
      -5.31635655e-004 -1.99289434e-003 -6.04515988e-003 4.13245754e-003
      8.47748481e-003 2.64655636e-003 -9.45458189e-004 -7.66510656e-003
      -9.37241968e-003 8.19357764e-003 4.35124664e-003 2.64764857e-003
      -7.76290719e-004 -2.57488107e-003 9.64595412e-004 6.54713204e-003
      7.17853755e-003 2.29930948e-003 -1.98966591e-003 -8.00003111e-003
      -6.41461508e-003 5.86831756e-003 9.08614509e-003 4.95417137e-003
      7.57756410e-004 -7.02594733e-003 -8.34597182e-003 8.37864121e-004
      7.83693325e-003 6.23399671e-003 2.84334063e-003 -6.82448875e-003
      -8.27623811e-003 5.79897640e-003 9.27849486e-003 5.16332593e-003
      2.93096731e-004 -1.15614468e-002 -9.41855833e-003 5.49573591e-003
      1.02548087e-002 1.01656718e-002 6.66586403e-003 -1.06466971e-002
      -8.89553409e-003 1.20547391e-003 4.64008283e-003 4.57197241e-003
      2.75237975e-003 -4.70461184e-003 -6.45768456e-003 1.70537585e-003
      7.29617151e-003 1.01180244e-002 8.40074196e-003 -5.93027333e-003
      -6.17056945e-003 3.67548061e-003 7.32322689e-003 9.58551653e-003
      7.52551202e-003 -1.13203162e-002 -1.09001845e-002 -1.12043555e-004
      9.19842906e-003 1.32841626e-002 9.88115557e-003 -1.14108855e-002
      -9.37966630e-003 -1.41204451e-003 4.80517978e-003 9.34954174e-003
      1.00858361e-002 -8.37567728e-003 -7.66766164e-003 -1.82823604e-003
      3.94069497e-003 1.07125444e-002 8.04522168e-003 -6.58489391e-003
      -6.84879534e-003 1.19471201e-003 5.07324329e-003 1.27119720e-002
      1.03897266e-002 -7.13330740e-003 -1.14920419e-002 -1.30316010e-003
      3.47961462e-003 6.42324844e-003 6.65903185e-003 -6.18791021e-003
      -8.72090831e-003 9.48524248e-005 1.61942933e-003 4.26372746e-003
      4.41384315e-003 -3.76605894e-003 -3.81637015e-003 2.10869545e-003
      1.22067158e-003 2.29321606e-003 4.30070376e-003 5.11752034e-004
      -3.70087248e-004 -1.42348360e-003 3.28643387e-003 3.69579834e-003
      1.47548190e-003 -7.16332858e-003 -8.24491959e-003 2.30613630e-003
      5.83255338e-003 5.79353934e-003 1.82086742e-003 -3.95105127e-003
      -2.95244530e-003 -3.15661542e-003 -2.87613994e-003 2.24651303e-003
      5.84215391e-003 -2.85854749e-003 -8.34771991e-003 -2.97869416e-003
      -3.21769126e-004 8.66790954e-003 7.34913163e-003 1.49228392e-004
      -5.11343079e-003 -1.77323469e-004 2.18140730e-003 3.25097516e-003
      1.74385111e-003 9.98867559e-004 -5.45487227e-003 2.11510970e-003
      5.88569650e-003 7.65363546e-003 3.97439720e-003 -2.57820793e-004
      -5.14365826e-003 1.05549558e-003 1.51654030e-003 5.06802369e-003
      8.02975963e-004 -2.06921226e-003 -4.82095918e-003 4.12332499e-003
      7.81936198e-003 8.38547479e-003 -3.19647312e-004 -6.69353036e-003
      -4.53406386e-003 5.31318318e-003 7.68783316e-003 7.96947721e-003
      1.42570958e-003 -5.87376859e-003 -3.25681781e-003 3.09892069e-003
      7.59380078e-003 8.93480703e-003 -1.88615464e-003 -4.20382107e-003
      -5.13707381e-003 3.79839865e-003 9.13716573e-003 7.50740571e-003
      8.59649153e-004 -3.78987519e-003 -3.71604622e-003 -1.87174766e-003
      7.77931837e-003 6.13718946e-003 5.19087259e-003 -2.71807145e-003
      -6.63825450e-003 -1.02981518e-003 6.89217960e-003 7.18297018e-003
      -1.62092270e-003 -3.27188009e-003 -4.50911466e-003
      -4.43412689e-003 8.05422291e-003 8.26160610e-003 6.93253754e-003
      -1.91689609e-003 -6.18281867e-003 -2.11413973e-003 6.70934143e-003
      7.45834643e-003 7.17640948e-003 -1.54970237e-003 -9.47438553e-003
      -5.51549764e-003 7.09532434e-003 1.12923868e-002 9.17820726e-003
      2.12035797e-004 -1.04206810e-002 -4.84332768e-003 7.90754147e-003
      8.32101889e-003 7.33222067e-003 -2.91738170e-003 -1.22878226e-002
      -6.56225812e-003 6.01039454e-003 1.07986182e-002 7.51847075e-003
      -3.33505822e-003 -1.22701945e-002 -4.19726968e-003 2.98464927e-003
      7.16789858e-003 1.03815775e-002 2.63238768e-003 -4.99514630e-003
      -1.60669768e-003 1.56037044e-003 3.26969102e-003 7.86020141e-003
      -2.22375221e-003 -4.52998606e-003 -5.03593124e-003 3.10581992e-003
      7.97808357e-003 9.26992018e-003 1.35462533e-003 -7.41487416e-003
      -6.12907484e-003 6.04697969e-004 4.54166858e-003 7.30462000e-003
      -9.07398178e-004 -8.59846454e-003 -6.50709379e-004
      -6.51326918e-005 4.01003286e-003 8.28236435e-003 -1.30610168e-003
      -4.25588572e-003 -8.02456227e-004 1.42656500e-003 5.76071255e-003
      6.95172139e-003 -4.16567689e-003 -5.85400360e-003 -1.18487212e-003
      1.54144503e-003 5.44142537e-003 9.38397832e-003 -2.89019343e-004
      -7.86287617e-003 5.73315541e-004 -1.11969923e-004 4.53398656e-003
      5.96530456e-003 1.76873361e-003 -6.39811298e-003 5.78141026e-003
      2.24094978e-003 5.58600063e-003 5.31546958e-003 -4.14307462e-003
      -3.40035069e-003 5.49586955e-003 -1.54267356e-004 1.64497853e-003
      4.63011768e-003 -3.33722215e-003 -3.87512776e-003 7.03393621e-003
      -1.99578609e-003 1.20246038e-003 2.71499762e-003 -4.41698823e-003
      -1.14503596e-003 3.65273189e-003 6.83609163e-004 2.73056817e-003
      4.68186475e-003 -7.54209934e-003 -3.91013501e-003 6.47064904e-003
      2.57987343e-003 2.40460224e-003 2.83785118e-003 -4.40232502e-003
      -1.95102720e-003 8.13850295e-003 2.61030137e-003 1.40439940e-003
      2.20386242e-003 -1.77515217e-003 -4.94146137e-004 5.31675247e-003
      2.93439650e-003 4.85415291e-003 4.17253282e-003 -6.74341992e-003
      -3.99689050e-003 3.36770806e-003 -7.57061120e-004 -2.17446723e-004
      6.29652699e-004 -5.32394974e-003 -4.09492012e-003 7.94498436e-003
      2.38984451e-003 2.45536468e-003 -6.29079994e-003 -8.78079701e-003
      5.88877499e-003 4.77550086e-003 2.07753084e-003 2.57209549e-003
      -2.38861796e-003 -5.39756194e-003 1.81825121e-003 5.54066338e-003
      2.94026162e-004 -5.17929392e-003 -5.98461879e-003 -8.00232124e-003
      4.21745144e-003 4.89962799e-003 -5.60491753e-004 -1.74907746e-003
      -3.75572802e-003 -8.88214167e-003 -3.89881752e-004
      -9.57305369e-004 1.77231780e-003 5.11880638e-003 -1.49903481e-003
      -7.21423328e-003 -1.13613519e-003 -3.56381945e-003 4.33592312e-003
      9.30999778e-003 6.32742234e-003 -5.79945603e-003 -6.70662988e-003
      -3.96895036e-003 -6.57416182e-003 1.45671226e-003 1.24023180e-003
      -9.78318322e-003 -4.98884404e-003 -1.05564883e-002
      -1.80441584e-003 6.96140295e-003 7.47383200e-003 -7.08802696e-003
      -1.13325631e-002 -3.33342049e-003 4.23065294e-003 1.18424352e-002
      8.47655721e-003 -4.35046339e-003 -8.49716086e-003 -3.82466754e-003
      1.99759961e-003 8.69660825e-003 9.74079687e-003 -9.66329302e-004
      -4.82330611e-003 -1.18439654e-002 -2.12755264e-003 6.58691302e-003
      8.99695326e-003 -4.73470427e-003 -1.15916915e-002 -8.06432497e-003
      3.66527893e-005 3.13931401e-003 4.30128025e-003 -3.27180093e-003
      -3.67305637e-003 -2.86618201e-003 1.05129252e-003 4.43944987e-003
      5.74163953e-003 3.56507278e-003 1.01693720e-003 -2.20031780e-003
      3.38046975e-003 3.88165331e-003 2.77506909e-003 -1.31471513e-003
      -2.49423948e-003 -5.21489745e-003 1.44950463e-003 4.74317349e-004
      4.44316654e-004 -2.74116104e-003 -4.60692868e-003 -6.70546945e-003
      8.46268085e-004 -1.13576429e-003 6.19931743e-005 -5.32027939e-003
      -4.46400233e-003 -2.39171344e-003 4.76319529e-003 3.03067034e-003
      5.98210143e-004 -1.91465230e-003 -5.60062006e-003 -1.05637393e-003
      5.38253551e-003 6.14968454e-003 1.77389593e-003 -9.91277397e-003
      -7.43243471e-003 -1.80790480e-003 4.34921309e-003 -6.09552721e-004
      -1.12944853e-003 -2.67572259e-003 -2.04283511e-003
      -8.68154806e-004 3.02302954e-003 1.07330969e-003 -1.95594784e-003
      -4.60178405e-003 -2.68934644e-003 4.81653376e-004 5.22629078e-003
      3.20383278e-003 5.08972444e-003 -5.45325456e-003 -7.76980259e-003
      4.03901935e-003 1.75187213e-003 -1.37742562e-003 1.72190787e-003
      -7.07624480e-003 -4.95763030e-003 9.23273001e-006 2.67754425e-003
      7.85696495e-004 2.28283950e-003 2.81345769e-004 -1.27468363e-003
      3.21729551e-003 1.04145228e-003 6.90413872e-004 -1.33090507e-004
      -9.32291895e-003 -2.81543471e-003 7.83140119e-003 4.94874222e-003
      2.15222739e-004 -3.61185009e-003 -5.04434295e-003 -5.38176799e-004
      6.01321785e-003 5.62042370e-003 -5.89783071e-004 -4.99637157e-004
      -8.65535345e-003 -3.29225580e-003 5.62492991e-003 3.15033807e-003
      2.13452312e-003 -2.41324864e-003 -9.59797576e-003 -2.14836490e-003
      1.28521712e-003 2.32319944e-004 4.13574930e-003 2.74585153e-004
      -8.17658287e-003 -3.77083221e-003 4.70053172e-003 5.31548122e-003
      6.23955671e-003 1.15666690e-003 -1.36953685e-002 -7.74611533e-003
      8.80037528e-003 8.32677074e-003 1.07258521e-002 6.38015708e-003
      -1.18467594e-002 -1.19501771e-002 2.96252733e-003 4.45809634e-003
      6.45598071e-003 4.75223875e-003 -1.01312418e-002 -3.05952900e-003
      7.77013646e-003 9.40391235e-003 5.90293715e-003 4.56822664e-003
      -1.23500274e-002 -6.68564951e-003 7.97560532e-003 7.17133051e-003
      6.86963042e-003 4.40217974e-003 -1.19770998e-002 -1.21897552e-002
      3.54475994e-003 5.75601263e-003 6.97531551e-003 4.98480489e-003
      -1.11985151e-002 -7.85948709e-003 1.41498232e-002 8.12474824e-003
      5.55944303e-003 4.43021068e-003 -1.06155081e-002 -4.87125525e-003
      4.88269329e-003 6.21757377e-003 7.54690496e-003 4.03971970e-003
      -6.32090447e-003 -9.49145667e-003 2.74099968e-003 3.11689149e-003
      9.16776899e-003 4.46516881e-003 -7.69530004e-003 -7.16931047e-003
      3.57648038e-004 3.24523938e-003 1.07260272e-002 4.42105252e-003
      -2.64685764e-003 -5.94622083e-003 2.42868369e-003 4.95725311e-003
      8.36018287e-003 4.62910719e-003 -8.83902702e-003 -8.56942963e-003
      3.03584919e-003 6.45158533e-003 9.30360705e-003 5.18025737e-003
      -9.29291174e-003 -6.92158705e-003 -3.90173495e-003 7.52446125e-004
      2.35689012e-003 1.26993295e-003 -4.86273272e-003 -5.86700439e-003
      2.97293067e-003 5.59240067e-003 4.37693857e-003 3.09251621e-003
      -3.75188561e-003 1.48361817e-003 1.51605345e-003 1.76007173e-003
      4.19583870e-003 6.79117336e-004 -7.30191497e-003 -7.12909875e-003
      6.65837061e-003 4.35706368e-003 3.91775090e-003 6.57891738e-004
      -6.99040852e-003 -5.39302919e-003 6.83053304e-003 3.58688668e-003
      1.95396948e-003 -2.51367711e-003 -1.14233810e-002 4.73931839e-004
      1.15582375e-002 8.91192816e-003 6.41164323e-003 1.81188279e-005
      -7.50170369e-003 1.11385656e-003 9.70819034e-003 4.95454669e-003
      3.93843977e-003 -4.66802157e-003 -1.47886369e-002 -3.82575300e-003
      1.02614881e-002 4.67912387e-003 5.95917646e-003 -3.28462920e-003
      -1.33672571e-002 -1.34886953e-003 8.96352902e-003 7.76030868e-003
      6.34342199e-003 -4.31678549e-004 -7.92912580e-003 -2.11289106e-003
      -2.53344246e-004 4.97910567e-003 6.23521535e-003 -1.60209590e-003
      -4.24647331e-003 -3.76757397e-003 8.82023200e-003 5.72249526e-003
      3.64601985e-003 -1.38711650e-003 -6.52391091e-003 -1.05922960e-003
      2.70515960e-003 1.80110650e-003 2.40258710e-003 -2.57898797e-003
      -3.52574815e-003 -4.81329067e-003 -3.37720080e-003 6.03316026e-003
      5.28906146e-003 2.50409386e-004 2.60141620e-004 -5.02983481e-003
      -3.66728357e-003 8.00622068e-003 6.57730224e-003 5.32362098e-003
      -1.48157577e-003 -3.77201964e-003 -5.71820536e-004 5.36826579e-003
      3.77021870e-003 8.37248983e-004 -5.68663049e-003 -9.83084645e-003
      1.55792793e-003 9.02082399e-003 7.75505416e-003 3.28004989e-003
      -6.89535402e-003 -8.93932581e-003 -3.76677606e-003 5.38161630e-003
      5.09439968e-003 4.55747871e-003 -4.85375989e-003 -8.39006994e-003
      -2.33865879e-003 6.43791351e-003 9.53548681e-003 4.64270357e-003
      -5.53193036e-003 -7.77080376e-003 1.98919140e-003 4.71718051e-003
      3.96328699e-003 3.14093521e-003 -4.96843504e-003 -3.59715824e-003
      -4.04777442e-004 6.91936119e-003 1.01389559e-002 4.83374111e-003
      -5.63032832e-003 -8.36310443e-003 -2.32630846e-004 1.56031037e-003
      5.36704296e-003 -2.02292122e-005 -2.30918173e-003 -5.81025938e-003
      -3.09714954e-003 -2.62154872e-003 4.71788598e-003 3.09460191e-003
      8.05901946e-004 -7.23108137e-003 -8.45212722e-004 3.97063931e-003
      1.01542622e-002 4.71102586e-003 -5.51790884e-003 -8.74938443e-003
      -4.87165013e-003 -1.12777954e-004 8.05976242e-003 3.33274715e-003
      -3.21409735e-003 -8.36151186e-003 -6.44613581e-004
      -1.66107982e-003 5.89458086e-003 2.62191426e-003 -2.25516455e-003
      -6.85816817e-003 2.99621467e-003 4.04202659e-003 5.33224689e-003
      -1.88496616e-003 -4.21628729e-003 -7.62384105e-003 5.82642206e-005
      3.87459033e-004 9.64742061e-003 5.07866684e-003 -1.70585536e-003
      -5.71884075e-003 -2.91516399e-003 4.13425267e-003 5.79697499e-003
      4.05691331e-003 -4.15769313e-003 -4.79796948e-003 5.91599569e-003
      2.99056224e-003 3.76557675e-003 -6.75566029e-004 -4.63183923e-003
      -2.92249443e-003 3.33982613e-003 1.58220949e-003 6.67101704e-003
      2.68885586e-003 -9.78471525e-003 -4.25079511e-003 2.01006024e-003
      3.65747209e-003 9.14344843e-003 7.04249507e-003 -7.01992773e-003
      -3.70260631e-003 1.24241062e-003 2.74034846e-003 6.73644384e-003
      2.15018354e-003 -9.77113657e-003 -3.84143437e-003 3.95878777e-003
      2.65854294e-003 9.16646142e-003 7.01128622e-004 -5.22318529e-003
      -1.16125993e-004 2.81286496e-003 7.39731768e-004 4.01251542e-004
      1.85265002e-004 -1.47811591e-003 2.42968905e-003 4.49824426e-003
      5.52154426e-003 5.56288613e-003 -3.17794969e-003 -6.42165449e-003
      8.84185371e-004 9.41269845e-003 -1.75457017e-003 -2.64083152e-003
      -4.05422645e-003 -8.58695304e-004 5.95938787e-003 4.30673361e-003
      1.16618851e-003 7.75322842e-005 -3.46267782e-003 -8.18645861e-003
      2.45403172e-003 2.63299467e-003 1.35979464e-003 8.19976092e-004
      1.37283432e-003 -9.74505767e-003 -1.47085369e-003 3.81684816e-003
      3.99714569e-003 3.46058136e-004 -5.16027911e-003 -5.89420600e-003
      -1.34305132e-003 2.57796701e-003 8.11060704e-003 2.88256234e-003
      -8.95332429e-004 -8.79516266e-003 -5.41944522e-003
      -1.79859705e-003 -2.77232472e-003 4.50281240e-003 5.14521636e-003
      -6.90747937e-003 -4.90039121e-003 -7.80068990e-003
      -3.80199542e-003 8.90545826e-003 6.68567047e-003 -4.73228935e-003
      -5.84938470e-003 -4.01254417e-003 2.67801282e-004 5.19545656e-003
      4.68455115e-003 -7.74913793e-003 -1.07368082e-002 -6.13143714e-003
      -1.89446064e-003 6.97167031e-003 3.64950905e-003 -5.71521139e-003
      -6.80294121e-003 -6.67162240e-003 -1.77912635e-003 4.58166702e-003
      9.21358075e-003 -9.41744132e-004 -6.40200311e-003 -2.26139626e-003
      2.22539483e-003 3.31797241e-003 3.55667807e-003 -7.05595070e-004
      -2.55937362e-003 -6.47731964e-003 -2.19335360e-003 3.13011440e-003
      5.76755963e-003 -2.24723923e-003 -7.61352666e-003 -6.56709587e-003
      -1.57661256e-004 1.55840849e-003 3.57926055e-003 -5.77306747e-003
      -5.62021649e-003 -3.15448246e-003 2.66764150e-003 1.48732122e-003
      9.54478164e-004 -3.29061382e-004 -4.83505521e-003 -1.45891274e-003
      3.37324035e-003 2.42798124e-003 4.25009476e-003 -3.45131475e-003
      -6.10618945e-003 -8.93909577e-003 5.00965770e-003 3.80514492e-003
      2.72253877e-003 -3.55004170e-003 -7.87790306e-003 -7.65785575e-003
      9.75196192e-004 6.24462916e-003 9.51123238e-003 -1.10149931e-003
      -6.00193348e-003 -7.45506957e-004 5.37536712e-003 1.14081765e-003
      -7.39041599e-004 1.28973112e-003 -4.30227118e-003 -2.85675260e-003
      2.13159993e-003 2.56364862e-003 3.03269946e-003 2.63663218e-003
      -2.52595590e-003 -5.84870204e-003 -5.58237894e-004 2.45627598e-003
      3.58855608e-003 -1.15030934e-003 -5.96086308e-003 -5.53733483e-003
      -1.35628122e-003 3.30466963e-003 8.62672459e-003 -2.88618286e-003
      -4.47935238e-003 -4.55676724e-004 2.45364476e-003 6.85649284e-004
      3.94910108e-003 4.97461716e-003 -2.61224410e-003 6.59915106e-003
      2.66781729e-003 1.38679286e-003 1.68429478e-003 -3.80259985e-003
      -3.93568585e-003 -2.87146168e-003 1.85367535e-003 1.91785768e-003
      3.84058245e-003 -1.59767247e-003 -6.73487224e-003 2.78031058e-003
      2.79714167e-003 -1.00328319e-003 7.84518023e-004 -2.92901439e-003
      -2.58496404e-003 5.22322953e-003 2.70471117e-003 2.26068660e-003
      5.69926749e-004 -8.05224292e-003 -5.26410248e-003 1.28828909e-003
      2.02260213e-003 4.28717583e-003 3.94277647e-003 -7.96999037e-003
      -8.11025966e-003 4.63872869e-003 2.43142503e-003 6.60690770e-004
      9.08825838e-004 -1.03337213e-003 1.65281221e-004 3.01432237e-003
      4.07018419e-003 1.62288628e-003 3.69770057e-003 -5.80107234e-003
      -5.55829005e-003 3.56977922e-003 3.37723270e-003 5.06206369e-003
      6.17124746e-003 -8.15951917e-003 -9.67176910e-003 6.92399777e-003
      9.84407589e-003 7.50379963e-003 3.05978698e-003 -1.17319953e-002
      -1.32681476e-002 2.68505700e-003 5.47219766e-003 4.84219193e-003
      6.03007106e-003 -8.85315519e-003 -5.76174865e-003 3.76949995e-003
      8.21138173e-003 7.12524448e-003 1.31949678e-003 -9.03540663e-003
      -8.99116136e-003 9.84621421e-003 1.01360297e-002 5.93963685e-003
      2.35622725e-003 -1.09826894e-002 -1.11955516e-002 1.59602228e-003
      7.45223323e-003 6.40121289e-003 4.35336074e-003 -8.58481880e-003
      -1.27388071e-002 5.07619930e-003 9.69237741e-003 6.65330188e-003
      2.34837853e-003 -8.63029063e-003 -7.91239180e-003 1.33041060e-003
      9.94149875e-003 9.29230731e-003 5.89193823e-003 -9.96300485e-003
      -1.38179706e-002 2.42953631e-003 6.55330112e-003 4.18239133e-003
      4.43929620e-003 -1.01256948e-002 -9.82670765e-003 5.12955710e-003
      5.44049218e-003 4.33399715e-003 1.94920215e-003 -1.16734747e-002
      -7.91201461e-003 4.92304889e-003 4.60052490e-003 2.16605747e-003
      5.93600096e-003 -7.18143489e-003 -9.72243492e-003 5.41635090e-003
      8.20171146e-004 3.01923719e-003 1.05970877e-003 -7.02819508e-003
      -6.50218129e-003 3.35153611e-003 1.81756832e-003 3.68785136e-003
      4.23763529e-004 -8.44511297e-003 -6.86422363e-003 3.44245508e-003
      1.49715063e-003 4.55393037e-003 1.88555871e-003 -9.52728000e-003
      -7.94569682e-003 3.41124041e-003 3.55995493e-003 5.89787262e-003
      -1.84534688e-003 -7.45782023e-003 -7.25841057e-003
      -2.09340898e-004 5.67683717e-004 9.01343126e-004 3.00731161e-003
      -7.52184447e-003 -8.86300299e-003 5.62309241e-003 2.86240410e-003
      5.79208648e-003 3.50298639e-003 -1.02472380e-002 -3.68173979e-003
      6.76912162e-003 3.05346516e-003 5.82754891e-003 5.64873824e-003
      -8.26061331e-003 1.10048440e-003 1.82814358e-004 -4.13629605e-005
      1.26630286e-004 3.53356893e-003 -6.96916506e-003 -1.06360046e-002
      2.39024917e-003 3.34161264e-003 4.64878976e-003 3.69288633e-003
      -9.00242105e-003 -8.30414798e-003 7.03148823e-003 3.74591583e-003
      2.89643207e-003 3.24754370e-003 -4.06875229e-003 -3.81710078e-003
      6.35941839e-003 2.65732803e-003 9.11966083e-004 5.85628161e-003
      2.42411229e-003 -3.74151138e-003 2.20362257e-004 1.97921949e-003
      3.68986023e-003 4.34511155e-003 -6.19028695e-003 -9.54292435e-003
      -4.14059992e-004 4.40268358e-003 3.68223269e-003 6.90583140e-003
      -1.24260189e-003 -9.01894830e-003 4.17949632e-003 2.60675186e-003
      7.79632246e-004 4.93252045e-003 -9.85492836e-004 -7.75013212e-003
      3.49083869e-003 7.92727619e-003 7.59147434e-003 7.79039133e-003
      -5.64166158e-003 -6.05355902e-003 -2.52871960e-003 6.46228343e-003
      4.29906882e-003 4.97910567e-003 -3.13719781e-003 -1.18053677e-002
      -2.43138336e-003 5.88974729e-003 6.95697358e-003 5.30823134e-003
      -5.62760653e-003 -1.23396991e-002 2.03391653e-003 2.27111601e-003
      6.14888920e-003 5.94622875e-003 -2.80042645e-003 -4.97116102e-003
      -9.74617782e-004 2.08771997e-003 1.08039919e-002 6.02438208e-003
      -1.53728470e-003 -4.80818050e-003 -2.92555871e-003 4.51679481e-003
      5.45448530e-003 5.66345360e-003 -7.62131345e-003 -1.32463956e-002
      -3.12837074e-003 5.11345780e-003 1.11061363e-002 8.39982741e-003
      -3.93435964e-003 -1.34781562e-002 -2.97349086e-003 9.73083021e-004
      1.05078537e-002 6.38062507e-003 -4.31246450e-003 -6.81076339e-003
      -4.65833535e-003 2.39585945e-003 1.18518844e-002 6.89059403e-003
      -7.84522388e-003 -7.98940752e-003 -3.97200324e-003 3.68394866e-003
      9.99844912e-003 6.61156233e-003 -4.22837539e-003 -9.46121570e-003
      -4.64021880e-003 3.55506921e-003 9.86571051e-003 4.96564573e-003
      -8.90820846e-003 -1.06045026e-002 -2.62129074e-003 9.53053823e-004
      8.40832572e-003 4.93629975e-003 -3.21225612e-003 -6.89918967e-003
      -4.65566013e-003 2.57180631e-003 7.00536976e-003 8.18907935e-003
      -1.20669242e-003 -3.66961327e-003 -1.20464864e-003 2.45605363e-003
      7.99797568e-003 2.49968376e-003 -6.65880507e-003 -5.68618346e-003
      -1.01479818e-003 5.31788450e-004 4.02465928e-003 6.80350233e-004
      -2.42902339e-003 -3.45767918e-003 -1.84667308e-003 2.63005588e-003
      6.73245825e-003 4.76743421e-003 -2.73877871e-003 -3.74651310e-004
      -1.92238099e-003 1.41985388e-003 3.31770559e-003 2.36793119e-003
      -8.24201480e-003 -1.30944233e-003 2.54832255e-003 4.10419743e-004
      1.54620828e-003 2.85371044e-003 -3.36067309e-003 1.05065771e-003
      3.73580988e-005 2.80594896e-003 3.85879423e-003 -4.84278920e-004
      -4.15454386e-003 2.61365599e-003 2.02104449e-003 5.92164788e-003
      1.92141556e-003 -2.97887507e-003 -3.29968613e-003 7.42223754e-004
      8.21407419e-003 4.62028710e-003 -4.43197135e-003 -5.27188322e-003
      -4.88444790e-003 7.33247865e-003 3.35965911e-003 7.46660633e-003
      -9.14915232e-004 -1.56577455e-003 -5.84116438e-004 4.72338358e-003
      1.29350517e-002 6.08906941e-003 -4.16019559e-003 -5.15005039e-003
      2.19620229e-003 1.21374791e-002 3.44290701e-003 3.44092818e-003
      1.25216332e-003 -1.82069489e-003 -5.76746371e-003 -1.38907228e-003
      2.11069616e-003 9.17889550e-003 4.87263547e-003 -1.41384837e-003
      -7.75611587e-003 -8.51479638e-003 4.58109006e-003 1.33858295e-003
      -8.51996243e-004 -2.02896935e-003 -9.14983172e-003
      -4.82744910e-003 1.82297290e-003 4.35928954e-003 3.00796237e-003
      -4.66877420e-004 -1.06235007e-002 -9.92684998e-003
      -8.77184910e-004 5.13675716e-003 6.76662801e-003 4.51065926e-003
      -6.19200757e-003 -9.81605891e-003 -5.67525392e-003 1.68904383e-003
      8.21065996e-003 8.40331987e-003 -6.37189532e-003 -9.32849292e-003
      1.82610028e-003 4.96529369e-003 5.32798609e-003 1.89238437e-003
      -6.88548340e-003 -8.68361723e-003 -5.66772604e-003 4.15941281e-003
      5.48902759e-003 2.07037665e-003 -5.78003284e-003 -8.79886281e-003
      -5.97108947e-003 3.77409486e-003 4.49443702e-003 5.14541287e-003
      -1.27948751e-003 -9.49419010e-003 -4.74304799e-003 6.95325388e-003
      7.09682889e-003 3.64422938e-003 -1.74882152e-004 -6.06290763e-003
      -7.83056207e-003 3.47134192e-003 4.34720982e-003 6.83803996e-003
      -1.01233250e-003 -9.82963480e-003 -4.60148975e-003 4.84434236e-003
      7.78465485e-003 8.60730466e-003 -2.10395548e-003 -8.45903251e-003
      -7.83426873e-003 4.23045736e-003 5.17218187e-003 3.68098402e-003
      2.46904953e-003 -7.06779351e-003 -1.01544382e-002 1.52798591e-003
      4.18930827e-003 8.48006457e-003 4.91944235e-003 -5.93221281e-003
      -8.38280190e-003 1.92831489e-004 6.97735185e-003 5.52576175e-003
      -2.50588078e-003 -7.69958925e-003 -8.76943953e-003
      -1.93256419e-004 5.39436750e-003 7.71055464e-003 1.35583419e-003
      -6.45399000e-003 -7.00514950e-003 7.53472035e-004 4.62565309e-004
      4.72015562e-003 2.07290589e-003 -3.34357796e-003 -4.33433522e-003
      2.27233092e-003 3.07786651e-003 4.78780456e-003 -2.18773447e-003
      -4.40905755e-003 -1.23934234e-002 -2.12922969e-004 3.67016648e-003
      6.57661492e-003 3.55844130e-003 -7.78828468e-003 -9.80962627e-003
      4.21606237e-003 5.20993397e-003 4.30321880e-003 2.94962618e-003
      -5.79161337e-003 -2.00695707e-003 4.46764380e-003 3.15167801e-003
      4.12041135e-003 1.50349020e-004 -6.33806875e-003 2.56195734e-003
      4.19675047e-003 2.39951606e-003 4.66382364e-003 -2.42667459e-003
      -4.12029214e-003 -5.32883592e-003 6.78406935e-003 4.10088943e-003
      3.41160875e-003 1.15199457e-003 -7.52033340e-003 -3.00357840e-003
      1.03390019e-003 4.88906726e-003 8.42749048e-003 -5.17952070e-003
      -7.07073230e-003 4.96170344e-003 3.04951612e-003 1.26102811e-003
      2.46581063e-003 -1.11351314e-003 -4.91878903e-003 3.82718723e-003
      5.68101322e-003 4.30111913e-003 3.91203864e-003 -1.78432779e-003
      -5.19366283e-003 2.47420394e-003 3.33800190e-003 3.28318332e-003
      5.66133624e-003 -6.35709567e-003 -9.89364181e-003 1.97368907e-003
      4.43846779e-003 5.71467727e-003 4.19661403e-003 -4.95848060e-003
      -8.51668883e-003 4.72732680e-003 5.76614169e-003 2.48928461e-003
      4.79363464e-003 -3.13791959e-003 -4.47495235e-003 4.15396551e-003
      6.45623123e-003 2.95606838e-003 1.94480861e-004 -4.05106181e-003
      -6.15040306e-003 3.09272599e-003 2.94283358e-003 -1.69871113e-004
      3.39894113e-003 -5.31781698e-003 -5.16989827e-003 1.91592809e-003
      3.59351980e-003 8.21561844e-004 -5.26535499e-004 -7.20934104e-003
      -6.47340389e-003 3.07820714e-003 5.03573893e-003 5.71459904e-003
      4.11764719e-004 -8.06656666e-003 -1.05184615e-002 2.71628890e-003
      8.49716738e-003 9.85163916e-003 4.61760024e-003 -9.83591285e-003
      -9.25943349e-003 1.94259069e-003 2.77485629e-003 2.47456762e-003
      8.86255002e-004 -7.94648286e-003 -6.28937362e-003 -2.29713260e-004
      4.09210194e-003 1.54269882e-003 8.21841182e-004 -7.77578633e-003
      -9.17587243e-003 4.00208030e-003 2.10767007e-003 1.93654571e-003
      2.52070534e-003 -8.43382441e-003 -6.66918512e-003 4.74369992e-003
      3.22443014e-003 -5.59486798e-004 -1.30147382e-003 -8.58434662e-003
      -5.74139645e-003 2.48775561e-003 5.05986274e-004 -2.82350316e-004
      1.54253165e-003 -8.89622234e-003 -4.36124438e-003 5.49994456e-003
      2.28346488e-003 -2.68883188e-003 -4.71154368e-003 -6.40286319e-003
      -6.36134704e-004 2.99968175e-003 5.15124435e-003 8.61765526e-004
      -3.73685709e-003 -1.01562766e-002 -4.95370850e-003 4.81371739e-004
      1.10841764e-003 -7.89416488e-004 -6.10125426e-004 -8.62231199e-003
      -6.73632044e-003 6.74698548e-003 1.75709405e-003 -9.79401637e-004
      -5.38582448e-003 -9.45833977e-003 2.44643004e-003 3.82590387e-003
      -3.18212691e-003 -2.35234178e-003 -3.64504964e-003
      -7.74657959e-003 -9.10710893e-004 6.56339689e-004 -9.75166040e-004
      -5.33339428e-003 -8.69017313e-005 -4.67370311e-003
      -8.35224986e-003 6.31716568e-003 1.82995689e-003 -6.92842514e-005
      -2.00766791e-003 -6.22112630e-003 -5.14957309e-003 8.44279770e-003
      -5.83187153e-004 -7.25621032e-003 -3.12541216e-003
      -1.83670700e-003 2.47378717e-003 9.44745913e-003 4.76955017e-003
      -3.06644198e-003 -4.20568511e-003 -3.05758603e-003 7.19436153e-004
      4.57674963e-003 -1.17103127e-003 -1.23399461e-003 -1.93951942e-003
      -7.31084589e-003 -6.44304464e-003 -8.85080779e-004 7.65085337e-004
      2.58440315e-003 4.02247207e-003 -1.62401178e-003 -5.67178940e-003
      7.27994135e-003 1.51830923e-003 -3.38228024e-003 -4.89159627e-003
      -5.89721370e-003 -6.89129927e-004 7.03743706e-003 1.34671107e-004
      -5.43261936e-004 -1.13491609e-003 -3.46347853e-003 2.49209115e-003
      -9.75430594e-004 1.86258287e-003 2.02866085e-003 2.19002063e-003
      -3.93167511e-003 -9.32861492e-003 -2.07581557e-003 1.66211370e-003
      7.94395164e-004 2.19969172e-003 -4.47092252e-003 -9.12548602e-003
      5.90561843e-003 4.43152356e-004 -6.36831683e-004 1.43278064e-003
      -5.11165359e-004 1.68022071e-003 8.20095837e-003 6.05164445e-004
      -4.54751746e-004 3.61972651e-003 -1.57653668e-003 -1.20521628e-003
      -1.36837957e-003 2.80039874e-003 9.82708181e-004 -6.23075699e-004
      -2.85553001e-003 -1.15922885e-002 2.67495692e-004 5.62145002e-003
      8.16099904e-003 3.28616379e-003 -7.84423482e-003 -1.31683340e-002
      7.49143446e-003 2.84542353e-003 2.87466217e-003 6.44677129e-005
      -1.49913877e-003 -4.31667082e-003 5.90067124e-003 3.58686945e-003
      6.39558118e-003 1.08542328e-003 -7.33349286e-003 -4.58467146e-003
      1.86763657e-003 5.01547474e-003 1.05293691e-002 6.13501901e-003
      -6.79245545e-003 -1.01326015e-002 2.67505064e-003 2.81441468e-003
      7.10987346e-003 5.20253438e-004 -9.55794193e-003 -8.34520627e-003
      7.48407841e-003 7.00460887e-003 7.97754247e-003 3.21234344e-003
      -9.81788337e-003 -3.59319244e-003 7.15676323e-003 6.82075368e-003
      7.18759233e-003 -9.22742300e-004 -1.12585034e-002 -3.75161786e-003
      1.01077359e-003 1.06998964e-003 6.76461030e-003 -1.01224323e-004
      -6.25929702e-003 -5.75619005e-003 9.31937655e-004 3.06206872e-003
      4.76808660e-003 2.17594206e-003 -7.44530233e-003 -1.55882188e-003
      4.82137362e-003 5.39181102e-003 4.93864203e-003 1.35534428e-004
      -1.06110284e-002 -3.62880551e-003 3.64684919e-003 4.64055967e-003
      2.74590543e-003 -9.44017200e-004 -7.75752496e-003 -1.40730920e-003
      3.46242520e-003 2.65331892e-003 5.17117931e-003 -3.44591914e-003
      -6.03981037e-003 -3.73519957e-004 4.09906497e-003 4.94186487e-003
      2.38382467e-003 -7.84412492e-003 -4.14239103e-003 2.80514662e-003
      4.92906524e-003 3.33735952e-003 2.78937095e-003 -3.37431533e-003
      -4.16820031e-003 8.04534240e-004 8.65954999e-003 4.85286629e-003
      -1.33699086e-003 -7.80556956e-003 -6.73211738e-003 3.49916471e-003
      5.81982592e-003 8.03993456e-003 -4.17871680e-003 -1.10837258e-002
      -4.12379252e-003 7.15396600e-003 1.35515518e-002 6.62893150e-003
      -3.79000022e-003 -1.15976846e-002 2.07513687e-003 1.13891596e-002
      1.07351346e-002 4.81342198e-003 -6.09777914e-003 -1.04197394e-002
      -4.14935453e-003 9.90464166e-003 1.46390898e-002 4.59901337e-003
      -7.01605296e-003 -8.67240783e-003 -8.34219172e-005 1.60276573e-002
      3.25271656e-004 1.67102111e-003 2.82940990e-003 1.83780468e-003
      -9.96923074e-003 -3.91688244e-003 3.99808260e-003 4.72326158e-003
      5.46032330e-003 6.80138299e-004 -9.10457876e-003 -6.48742588e-003
      -2.78277742e-003 -3.42168799e-003 4.81705414e-003 7.26737780e-004
      -1.06859123e-002 -8.16692784e-003 1.13162305e-003 9.09592127e-005
      3.63564165e-003 1.08661945e-003 -9.87605471e-003 -6.94732275e-003
      3.35063343e-003 4.52349102e-003 5.60105639e-003 -1.09084370e-003
      -2.88420869e-003 -4.78781061e-003 1.06959871e-003 1.97924464e-003
      1.72470696e-003 1.81037292e-004 -3.10709421e-003 -5.78907691e-003
      -3.79048241e-003 -2.20869784e-004 6.69204304e-003 2.00592517e-003
      -4.02205624e-003 -6.36265660e-003 -3.24567803e-003 5.16528916e-003
      4.22587898e-003 3.40475538e-003 -2.04754528e-003 -5.82399219e-003
      -4.72749729e-004 3.17524094e-003 5.27796987e-003 3.66633129e-003
      -3.62005713e-003 -5.74581698e-003 -3.35619692e-003 6.69161789e-004
      5.71442209e-003 6.95054373e-003 -1.51938898e-003 -5.19030355e-003
      -4.47655143e-003 3.73301655e-003 2.95730261e-003 5.66041144e-003
      1.11524086e-003 -8.28413200e-003 -8.33442714e-003 5.44987060e-003
      4.58526984e-003 6.54237205e-003 4.75631416e-004 -7.71292113e-003
      -4.74483101e-003 1.82967307e-003 3.48409917e-003 4.54148324e-003
      -4.57541668e-004 -8.94010998e-003 -4.56876401e-003 3.16517288e-003
      5.46935434e-003 5.47667546e-003 -4.59591247e-004 -5.44452434e-003
      -4.85784328e-003 5.89011004e-003 3.29319364e-003 3.42751620e-003
      -1.29291671e-003 -1.17131174e-002 -3.65001336e-003 6.22418011e-003
      6.72463374e-003 4.10850160e-003 -6.73184055e-004 -9.04356223e-003
      -7.86864106e-003 3.97935091e-003 4.10822779e-003 5.27884159e-003
      2.99990014e-003 -5.23317233e-003 -7.53889605e-003 4.27358039e-003
      5.50471339e-003 4.77591297e-003 2.75954348e-003 -5.16229402e-003
      -4.24882350e-003 5.71970548e-003 4.84755263e-003 1.70203485e-003
      1.06730638e-003 -7.85413105e-003 -8.95461813e-003 3.14065395e-003
      4.48407559e-003 5.87745896e-003 5.77622559e-004 -5.63263427e-003
      -5.29976003e-003 3.81260505e-003 5.30012092e-003 4.12414037e-003
      3.15532181e-003 -7.68353883e-003 -1.74137042e-003 3.24561936e-003
      7.59170856e-003 7.91314244e-003 -2.69471551e-003 -8.27433914e-003
      -8.61806795e-003 3.87582905e-003 6.38563093e-003 5.46923652e-003
      -6.55938173e-004 -7.70237530e-003 -4.92188148e-003 1.70497119e-003
      9.91613604e-003 7.93095678e-003 -1.89310696e-003 -7.36688077e-003
      3.73125775e-003 3.27098928e-003 5.76763460e-003 7.65472604e-003
      4.32227273e-004 -1.12379408e-002 1.06949743e-003 3.91737930e-003
      3.17447493e-003 5.58812916e-003 -1.46082195e-003 -9.58052650e-003
      -1.36506732e-003 1.33364089e-003 7.88759254e-003 1.03981653e-002
      -1.35901663e-003 -1.15424702e-002 -1.00099938e-002 2.13236688e-003
      5.02237119e-003 7.45227328e-003 2.13978137e-003 -1.22446055e-002
      3.00512859e-003 2.58406601e-003 2.18145689e-003 4.52193012e-003
      1.32028689e-003 -7.04012252e-003 2.41499091e-003 5.79149835e-003
      2.88849068e-003 2.54754513e-003 -4.21591382e-003 -4.96262126e-003
      -6.28520828e-003 3.73445824e-003 5.13034128e-003 5.65270567e-003
      1.31595519e-003 -1.06378067e-002 -5.53929806e-003 5.98181179e-003
      4.14810050e-003 1.57549488e-003 -2.13111704e-003 -7.25475699e-003
      4.63308534e-003 3.42979981e-003 1.13191863e-003 1.69583608e-003
      -4.50127729e-004 -2.29708781e-003 4.59780497e-003 1.71011430e-004
      9.78917466e-004 2.56773131e-003 -1.25446380e-003 -7.09170185e-004
      -2.41590641e-003 7.43557420e-003 3.10796895e-003 7.92365230e-004
      -3.09778820e-003 -9.74534918e-003 -1.31783006e-003
      -1.82414569e-005 -2.18356936e-003 4.34838841e-003 -7.22210621e-003
      -5.25843166e-003 2.57402286e-003 -2.08829343e-003 -1.84791151e-003
      1.10557291e-003 -2.48218537e-003 -2.05313344e-003 4.12389636e-003
      6.83578313e-004 -5.34729706e-003 -1.84556330e-003 -1.73764571e-003
      4.01793106e-004 6.37148973e-004 -4.44646040e-003 -4.40649455e-003
      1.32274826e-003 -2.81504286e-003 -2.79227528e-003 1.83066155e-003
      -1.80151057e-003 -8.25777277e-003 -9.55208670e-004 2.81128404e-003
      1.34660164e-003 2.52112118e-003 -1.74747314e-003 -6.06529834e-003
      -1.34770060e-003 -7.82833435e-003 1.64527318e-003 5.10241184e-003
      -5.94414491e-003 -4.88514453e-003 -5.20500937e-004
      -9.21875425e-003 2.50570616e-003 1.47103891e-003 -6.84713246e-003
      -8.39095563e-003 1.21975585e-003 -1.62131106e-003 2.92527443e-003
      5.00842929e-003 -9.38006211e-003 -6.00620359e-003 -1.37517159e-003
      1.48574088e-003 3.72986170e-003 8.39560572e-003 -4.18842956e-003
      -9.80329327e-003 -3.62348044e-003 -2.57578678e-003 5.36983786e-003
      8.97431560e-003 -8.95407982e-004 -5.99240419e-003 -6.41106069e-003
      -4.00000019e-003 4.73794481e-003 8.41194112e-003 -5.68429427e-003
      -1.06207822e-002 -2.34231446e-003 3.01740854e-003 9.84021556e-003
      9.87242721e-003 -3.22075398e-003 -9.90748499e-003 -8.81672464e-003
      2.32549547e-003 6.50468096e-003 3.07460036e-003 -1.13519258e-003
      -2.37973710e-003 -2.31327536e-003 -4.33974247e-003 1.46114733e-003
      2.80340970e-003 -5.99521818e-003 -4.62543825e-003 -4.36449154e-005
      9.58676101e-004 5.70668606e-003 5.42020146e-003 -6.92526670e-003
      -7.98835512e-003 -6.37506926e-003 2.13477178e-003 5.72501961e-003
      6.22105785e-004 -1.01148710e-002 -6.65837573e-003 -2.96230754e-003
      5.84212970e-003 7.14640226e-003 -5.62254165e-004 -7.54232286e-003
      -8.39494355e-003 -4.04141203e-004 1.32613722e-003 1.73289981e-003
      4.19599796e-003 -4.39203810e-003 -4.80992859e-003 2.49876850e-003
      -4.52028558e-004 1.08746544e-003 -2.48809601e-003 -1.21407295e-002
      -6.57547079e-003 -2.05475488e-003 2.68995500e-004 6.29579707e-004
      2.06041383e-003 -2.06958014e-003 -3.74435307e-003 -7.20790413e-004
      7.04720500e-004 3.04083806e-003 1.84863189e-003 -3.16608814e-003
      -3.78112518e-003 -2.54456676e-003 -2.29931762e-003
      -4.25789133e-003 -2.84703914e-004 -1.89841806e-003 2.93592137e-004
      -3.82546289e-003 -5.70629817e-003 -4.10377793e-003 3.38205975e-003
      -2.01781886e-003 -2.87354551e-003 -2.52118753e-003
      -2.17935070e-003 6.91991183e-004 -1.53790286e-003 -2.75383401e-003
      -2.17599398e-003 -2.17844360e-003 -4.87041613e-003 1.90580671e-004
      4.34003770e-003 3.68169718e-003 6.14302512e-003 1.36953415e-004
      -5.97452326e-003 -9.01428796e-003 5.30133583e-003 6.90493127e-003
      7.53467716e-003 -4.80642356e-003 -1.49741666e-002 -5.45921270e-003
      2.26812830e-004 1.43444131e-003 7.22689833e-003 -7.63175776e-004
      -3.52172926e-003 -3.61547689e-003 2.76816124e-003 5.74659277e-003
      5.16923796e-003 -1.14668661e-003 -7.89036788e-003 -7.16332626e-003
      2.66085146e-003 6.73790742e-003 1.12986146e-002 7.40572068e-005
      -1.23075042e-002 -4.22766991e-003 3.10290791e-003 5.86947054e-003
      9.21978429e-003 1.06240669e-003 -1.28926020e-002 -4.50572558e-003
      4.00556158e-003 6.63759140e-003 7.89893977e-003 2.01591197e-003
      -7.28003122e-003 -3.08494084e-003 8.76649108e-004 9.29477159e-003
      1.06661040e-002 2.11496881e-004 -1.24325454e-002 -8.08084756e-003
      2.70387251e-003 1.87720195e-003 4.89700492e-003 -2.83960439e-003
      -7.87130650e-003 2.92186887e-005 5.97198214e-003 -2.30328040e-003
      -3.66916438e-003 -3.56613076e-003 -7.99915753e-003 4.23997920e-003
      5.80454757e-003 4.51800227e-003 4.49588383e-003 -4.40844428e-003
      -7.70353526e-003 -2.85675237e-003 9.90429055e-003 -1.44349935e-003
      4.33903100e-004 -5.25745703e-003 -2.12562643e-003 6.52099401e-003
      7.33774155e-003 6.43568637e-004 -4.36253566e-003 -1.12288017e-002
      -5.01144305e-003 5.13227889e-003 1.44833354e-002 2.49382458e-003
      -5.58949914e-003 -9.13869962e-003 -8.01595277e-004 1.37803070e-002
      1.20699815e-002 4.60576965e-003 1.40645992e-004 -8.17760732e-003
      -1.84561894e-003 5.95439039e-003 1.69674363e-002 7.82305840e-003
      -9.03276843e-004 -8.09930544e-003 -2.02040025e-003 1.11794909e-002
      -1.10810483e-003 4.24448343e-004 6.19204482e-003 4.32603853e-003
      -9.18801408e-003 -5.29733906e-003 -2.10546283e-003 9.50207934e-004
      7.09340535e-003 4.62000212e-003 -4.94287675e-003 -3.59755591e-003
      -1.31879444e-003 2.70106597e-003 3.13672167e-003 6.18750928e-004
      -7.05485558e-003 -6.71631051e-003 -3.41576454e-003 6.04040397e-004
      4.90132999e-003 -4.26627463e-004 -7.97307398e-003 -2.86154053e-003
      -3.54439160e-003 2.19096127e-003 7.36567006e-003 4.29006200e-003
      -2.49880855e-003 -9.34783183e-003 -4.76205302e-003 6.34211907e-003
      8.76086671e-003 4.77985898e-003 -3.49891325e-003 -4.41459147e-003
      -4.35912982e-003 1.05670094e-003 4.95481025e-003 2.55017681e-003
      -6.95306854e-003 -9.21429601e-003 -3.96327162e-003 3.56463576e-003
      9.25663766e-003 2.21529161e-003 -5.51115256e-003 -8.54283944e-003
      -5.73198777e-003 6.20674854e-003 4.29295097e-003 1.78616249e-003
      7.35719223e-004 -8.78392905e-003 -5.84875001e-003 6.97527034e-003
      5.34265302e-003 5.20974863e-003 -1.56076136e-003 -9.54108126e-003
      -5.02491742e-003 3.67476861e-003 6.01562578e-003 4.08642460e-003
      -3.19832517e-003 -1.01376045e-002 -6.93042902e-003 4.81613493e-003
      6.76720822e-003 1.03195850e-002 -9.28532507e-004 -1.26552060e-002
      -4.70497878e-003 8.89098085e-003 4.83202050e-003 7.71108037e-003
      -9.22326362e-005 -1.50859887e-002 -3.10912356e-003 1.12018799e-002
      6.89327531e-003 7.21418532e-003 1.59096104e-004 -1.29416902e-002
      -1.28186578e-002 6.24150969e-003 9.69778933e-003 1.35053201e-002
      2.95456895e-003 -1.50251118e-002 -1.39282839e-002 8.37153662e-003
      8.54590256e-003 1.08269071e-002 1.12694746e-003 -1.23560270e-002
      -2.12990097e-003 4.77626687e-003 2.92368908e-003 5.12512308e-003
      5.84743824e-003 -1.08655961e-002 -3.59306857e-003 3.90022690e-003
      2.87701259e-003 7.45498110e-003 2.39559496e-003 -9.77599900e-003
      -1.12923803e-002 6.98802900e-003 4.72249975e-003 6.21446595e-003
      3.61194368e-003 -1.06675131e-002 -7.68927997e-003 6.06305245e-003
      6.48123398e-003 6.63505774e-003 2.97071994e-004 -8.99237860e-003
      -1.33094913e-003 3.89143848e-003 3.54606495e-003 5.12876688e-003
      2.47645262e-003 -9.20511037e-003 -2.73065944e-003 1.90662104e-003
      5.87209268e-003 1.06307846e-002 5.47816744e-004 -7.06676254e-003
      -6.05249265e-003 5.53140230e-003 7.23819667e-003 5.29447943e-003
      -3.94679606e-004 -9.68049094e-003 -6.93381717e-003 1.48975081e-003
      7.08913570e-003 8.14073067e-003 1.10632647e-003 -6.60876371e-003
      -3.00263590e-003 1.42213283e-003 6.23871805e-003 1.02346735e-002
      3.31882574e-003 -8.89050588e-003 -4.96589951e-003 4.73062322e-003
      7.22676516e-003 9.72911622e-003 -2.45286792e-004 -9.81193315e-003
      -6.28180150e-003 4.26253350e-003 5.55671612e-003 9.19475313e-003
      1.98960933e-003 -8.35490040e-003 -5.38520422e-003 7.03205401e-003
      8.99763219e-003 9.68772173e-003 -6.47177175e-003 -1.31683629e-002
      -3.18176649e-003 5.75339887e-003 9.58277285e-003 8.51435587e-003
      1.64101308e-003 -9.04038269e-003 -2.50804657e-003 6.80527324e-003
      6.58829836e-003 3.20015475e-003 -1.01823173e-003 -9.55415983e-003
      -1.70824537e-003 8.58424697e-003 9.85827576e-003 7.86045194e-003
      -3.37677589e-003 -1.19504044e-002 -3.16568464e-003 3.11242836e-003
      6.63750898e-003 3.68086947e-003 -4.42688446e-003 -1.20975347e-002
      -1.32922339e-003 3.30743543e-003 3.37017002e-003 -5.75087382e-004
      -1.47385302e-003 -9.28858388e-003 1.64824107e-003 3.46901477e-003
      -2.93894112e-003 -6.76864292e-004 -5.90796722e-003
      -3.27814254e-003 -2.41168169e-003 -1.03448587e-003 1.93911791e-003
      4.77664144e-005 -3.28793051e-003 -6.53650239e-003 6.90034067e-004
      -6.49425434e-004 -2.83460272e-003 -4.47296165e-003
      -3.61314788e-003 -2.82397494e-003 8.81179643e-004 -2.21663923e-003
      -4.85203089e-003 6.46825705e-004 -3.69653036e-003 -3.23746027e-003
      4.87783970e-003 -3.48333479e-003 -5.23728738e-003 1.56663591e-003
      5.03216358e-003 2.41523585e-003 4.52392176e-003 -1.52908382e-003
      -3.74689535e-003 -1.98278736e-004 -4.51633008e-003 6.95269962e-004
      7.03377742e-003 -2.08290480e-003 -4.96089971e-003 8.85955000e-004
      -4.47187852e-003 5.59227355e-003 4.97900182e-003 -9.62106884e-003
      -9.55677405e-003 -7.42519391e-004 2.45385803e-003 5.03402064e-003
      5.42862574e-003 -8.70900787e-003 -6.09707553e-003 -2.40199151e-003
      4.58825007e-003 1.03736166e-002 5.53455390e-003 -8.82511958e-003
      -1.01294434e-002 -2.26309081e-003 -2.55550287e-004 7.55962869e-003
      6.07324997e-003 -8.55937786e-003 -6.99012168e-003 -3.57549405e-003
      1.81372219e-003 8.91679712e-003 6.02840865e-003 -4.23514610e-003
      -1.00018755e-002 -4.20807861e-003 3.43215116e-003 1.19217513e-002
      8.33660644e-003 -5.65439416e-003 -1.22284647e-002 -8.76048952e-003
      1.71735568e-003 1.15280598e-002 6.99162669e-003 -4.01074532e-003
      -1.11881085e-002 -5.79171255e-003 2.63200514e-003 1.07591879e-002
      5.00915339e-003 -5.30891307e-003 -9.99055989e-003 -5.73816895e-003
      2.54380261e-003 1.38481278e-002 5.04812598e-003 -1.03173135e-002
      -1.34210335e-002 -6.26249425e-003 1.47979031e-003 9.58477240e-003
      1.68604800e-003 -1.24629410e-002 -9.92751867e-003 -3.55185312e-003
      2.50991737e-003 5.99248335e-003 5.03517268e-003 -9.65394173e-003
      -7.57110212e-003 -3.40281171e-003 3.62527138e-003 9.76131670e-003
      4.60749632e-003 -4.12385212e-003 -5.95816737e-003 -1.65287429e-003
      4.85981070e-003 9.08030663e-003 -2.34840252e-003 -8.79039243e-003
      -5.93137788e-003 -2.56273639e-003 -2.08755070e-003
      -8.86004884e-004 2.00557359e-003 -4.31606633e-004 -1.51452958e-004
      -1.91326893e-003 -8.25963542e-003 1.49030203e-003 3.58740799e-003
      -2.48371018e-003 -3.56114423e-003 -1.33295020e-003
      -5.65796043e-004 -3.40930012e-004 2.37495499e-003 8.21644280e-005
      1.38936203e-003 1.44480343e-003 -9.91699379e-003 -3.56892240e-003
      3.01862764e-003 -5.78375766e-004 1.65536394e-003 -2.20284075e-003
      -6.55233860e-003 1.21826353e-003 -9.69011860e-004 -3.19695449e-003
      1.72248960e-003 -2.15105433e-003 -3.30803380e-003 -1.60067331e-003
      -1.96996130e-004 -1.28281862e-003 1.16074923e-003 -2.59032007e-003
      -1.04698725e-002 -5.41766454e-003 -6.10200863e-004
      -7.06644263e-003 5.62769827e-004 -5.51304407e-003 -5.15217474e-003
      -1.87270576e-004 -4.44887485e-003 -9.08551097e-004 5.05872956e-003
      -1.90806852e-004 -2.60913116e-003 -3.69645283e-003
      -5.02358656e-004 4.31133946e-003 1.85178814e-003 -1.70135312e-003
      -4.87430114e-003 -3.79031850e-003 -3.44033958e-003
      -7.74445012e-003 -3.42632597e-003 -6.08802214e-003 1.19584787e-003
      -3.21577740e-004 1.41445536e-003 -3.07639479e-003 -2.69813137e-003
      -3.72474594e-003 -1.21268595e-003 -3.42094386e-003 4.22405917e-003
      5.94417844e-003 -3.00110434e-004 -2.40830262e-003 -4.00824565e-003
      -3.28293513e-003 3.96383740e-003 7.32396683e-003 1.06613594e-003
      -3.41255520e-003 -1.00572966e-002 -2.11469689e-003 8.49710871e-003
      4.68265172e-003 -2.92202760e-003 -4.70756553e-004 -1.47104467e-004
      -1.94417534e-003 9.82931349e-003 7.64235901e-003 1.00882037e-003
      -1.17973587e-003 -3.90889263e-003 1.50726479e-003 6.93143951e-003
      4.99306899e-003 -7.79058377e-004 -7.10154418e-003 -7.20950728e-003
      1.65916397e-003 9.98253841e-003 4.29875188e-004 -7.78790505e-004
      -9.83616989e-003 -4.13366035e-003 6.08676672e-003 1.00201108e-002
      8.17769580e-003 -6.03168737e-004 -4.98837512e-003 -1.05040870e-003
      4.85277595e-003 1.13164233e-002 5.75565966e-003 -3.01054982e-003
      -7.93516170e-003 -2.33287713e-003 8.02879594e-003 1.09977657e-002
      2.55621597e-003 -3.46064079e-003 -1.13673294e-002 -3.78957344e-003
      8.68021604e-003 1.55469663e-002 3.42714041e-003 -1.93703140e-003
      -1.07869441e-002 -4.00429079e-003 1.31338667e-002 1.03092426e-002
      6.12625852e-003 -4.04905248e-003 -1.02062700e-002 8.85859481e-004
      7.87603576e-003 1.68133620e-002 6.21625409e-003 1.98901296e-004
      -1.14155002e-002 1.95765216e-003 1.51669346e-002 1.12390182e-004
      5.43006789e-003 3.49146244e-003 -2.78084655e-004 -8.59692134e-003
      -4.93159052e-004 6.40542887e-004 2.60652718e-003 1.65258232e-003
      -1.98773248e-003 -4.64766566e-003 -1.26067118e-003 1.33710785e-003
      3.39079089e-003 -7.46769307e-004 -8.81911954e-004 -3.24007170e-003
      1.25692692e-003 2.04949896e-003 -1.50120584e-004 1.82721624e-003
      5.29644196e-004 -6.34232489e-003 4.76865796e-003 -4.38628066e-003
      9.64112347e-004 2.58942391e-003 -1.71626778e-003 -6.55853655e-003
      -5.57920197e-003 -3.56461061e-003 6.11320836e-003 1.13480687e-002
      1.22546300e-003 -7.22111296e-003 -9.14249476e-003 -2.71088840e-003
      -9.84522281e-004 5.20057743e-003 1.68600422e-003 -8.63732118e-003
      -2.18150462e-003 -3.22914473e-003 3.18576489e-003 9.51219443e-003
      2.26627151e-003 -7.16182683e-003 -9.77390632e-003 -4.15376993e-003
      7.16868881e-003 7.30627216e-003 2.60770950e-003 -5.75233949e-003
      -1.18129458e-002 -7.02099968e-003 4.59163496e-003 8.44952185e-003
      8.82208999e-003 -1.63950422e-003 -1.42549267e-002 -5.50020114e-003
      6.49870513e-003 9.42113809e-003 5.21669583e-003 -4.66883695e-003
      -1.39659215e-002 -7.52742076e-003 6.35044137e-003 1.13831237e-002
      9.88246314e-003 -1.47249841e-003 -1.13804350e-002 -1.10909101e-002
      1.52916135e-003 7.72202294e-003 1.21673793e-002 3.70602240e-003
      -1.39237670e-002 -1.32963881e-002 2.14485615e-003 8.44958983e-003
      1.23241674e-002 2.54926761e-003 -1.29806930e-002 -1.29655069e-002
      3.19806207e-003 1.14834253e-002 1.02987234e-002 5.33919036e-003
      -1.25729702e-002 -1.57276262e-002 2.56186328e-003 1.00747310e-002
      1.23942904e-002 5.75123774e-003 -1.11790393e-002 -1.03594931e-002
      6.38172496e-003 5.31783700e-003 6.85165729e-003 4.20782529e-003
      -1.23770423e-002 -7.72879785e-003 6.92770584e-003 6.73685968e-003
      6.93293102e-003 1.26821734e-003 -9.94638819e-003 -1.06021492e-002
      3.22751794e-003 7.30246352e-003 9.56390426e-003 7.04760710e-003
      -1.26743270e-002 -7.73605332e-003 5.23475790e-003 5.95214032e-003
      1.03021841e-002 4.32024570e-003 -9.94220842e-003 -7.25612743e-003
      5.19098714e-003 4.93430533e-003 4.21818346e-003 1.82547653e-003
      -9.20805056e-003 -4.96596936e-003 5.26347430e-004 3.19600967e-003
      7.97757972e-003 -1.06720172e-003 -8.15816969e-003 -4.75691538e-003
      7.49509176e-003 4.89223283e-003 5.32287220e-003 2.94708740e-003
      -8.01997446e-003 -9.18715727e-003 5.20274276e-003 3.50721716e-003
      5.43344254e-003 7.46834325e-004 -8.63742363e-003 -4.08920785e-003
      2.15229322e-003 4.05722158e-003 1.05271274e-002 4.24552616e-003
      -8.78985785e-003 -7.01210694e-004 5.65185165e-003 7.22974073e-003
      7.63491681e-003 -5.14607038e-003 -1.05827171e-002 -9.14644729e-003
      6.57348754e-003 5.05439332e-003 9.14582890e-003 3.81068885e-003
      -1.15358923e-002 -6.92159543e-003 5.60933445e-003 6.60142722e-003
      8.19699001e-003 -1.38918729e-003 -1.27913747e-002 3.30340881e-005
      6.40058797e-003 6.51665963e-003 5.22039179e-003 -2.69452878e-003
      -1.12109762e-002 -2.98155355e-003 4.19947039e-003 7.44690048e-003
      3.91114037e-003 -2.99540162e-003 -9.08972789e-003 1.53778034e-004
      7.26279477e-003 2.03080336e-003 3.98851186e-003 -4.53305256e-004
      -1.15863709e-002 -7.54214416e-004 6.42842939e-003 5.45331370e-003
      3.21008754e-003 -3.49761429e-003 -1.20204277e-002 -2.15652003e-003
      -2.62374451e-005 -4.30040964e-004 -1.36082212e-003
      -4.51489538e-003 -8.12680088e-003 2.55051214e-004 -1.20182626e-003
      -1.10208557e-003 -4.09795297e-003 -1.96963036e-003
      -1.09854341e-003 -1.13201293e-003 6.72907848e-003 -3.34932469e-004
      -1.66865846e-003 -3.86712770e-003 -1.11327181e-002 8.51045013e-004
      4.34387242e-003 -2.27706227e-003 -5.56242699e-003 -1.91865489e-003
      -1.39722088e-003 2.24279170e-003 4.18268355e-005 -2.93893251e-003
      -3.72144603e-003 -5.10422140e-003 4.60876006e-004 9.28288884e-003
      -2.38924753e-004 -4.26382292e-003 -4.13624244e-003
      -7.45623652e-003 3.73803102e-003 5.22783864e-003 4.07378376e-003
      -3.22677055e-003 -6.43251557e-003 -6.97150035e-003 4.42198617e-003
      1.49101168e-002 4.09444701e-003 -3.45122977e-003 -7.54185906e-003
      -6.91152643e-003 8.39385483e-003 6.66210474e-003 -4.90809139e-003
      -8.73881020e-003 -5.45573514e-003 -6.74995035e-003 6.28956733e-003
      5.93641028e-003 -3.42595321e-003 -9.47045349e-003 -5.00396406e-003
      -1.46496645e-003 9.64467134e-003 1.17259929e-002 -2.83815479e-003
      -4.58216341e-003 -8.32306035e-003 -7.33347749e-003 9.91675165e-003
      8.68794322e-003 -4.27289726e-003 -7.80163333e-003 -2.04506726e-003
      -2.05659727e-003 1.22905346e-002 5.17897727e-003 -1.52593653e-003
      -1.06868586e-002 -1.02493064e-002 8.25144816e-004 8.64427909e-003
      2.07910780e-003 -5.16361510e-003 -8.56976863e-003 -6.42623520e-003
      8.75210331e-004 1.04975067e-002 9.68793780e-003 -3.50157730e-003
      -1.13805151e-002 -8.34574830e-003 -1.25996349e-003 1.28979282e-002
      4.77006100e-003 -5.77365281e-003 -7.37334043e-003 -5.34888078e-003
      2.04590708e-003 1.30686732e-002 -2.36484746e-004 -9.13903024e-003
      -7.78996153e-003 -1.70089141e-003 6.37606019e-004 6.42322702e-003
      3.18753347e-003 -7.40860682e-003 -9.97793861e-003 1.25726906e-003
      4.54768166e-003 7.21534248e-003 1.79544836e-003 -8.59549921e-003
      -6.98101800e-003 -1.41484849e-003 1.43598043e-003 1.09610818e-002
      1.54417229e-003 -8.12146068e-003 -6.97347708e-003 1.64925572e-004
      5.19246794e-003 1.14276120e-002 1.39575219e-003 -5.75598050e-003
      -5.21044713e-003 3.07544251e-003 1.99446757e-003 2.38124092e-004
      -3.97029798e-003 -2.97101773e-003 2.17541703e-003 3.24390223e-003
      -5.11896703e-003 -6.47757621e-003 -3.65618546e-003
      -8.29419401e-003 -2.59928918e-003 2.97126430e-003 -3.33749951e-004
      2.28001457e-003 -4.81536472e-003 -4.54279082e-003 -1.18722813e-003
      1.01037708e-003 -2.67398753e-003 -4.03941236e-003 -4.18514851e-003
      -3.34947463e-003 -9.61154350e-004 -5.15222375e-004
      -5.80527075e-003 -3.03552183e-003 -7.79595517e-004
      -4.73609567e-003 -4.57955245e-003 -5.78878121e-003
      -7.53434142e-004 2.65957788e-003 -4.16485220e-003 -5.89488307e-003
      -6.32082392e-003 2.16615997e-004 -1.52236642e-003 2.90410244e-003
      -1.64782803e-003 -5.32997400e-003 -6.52359333e-003
      -3.78063670e-003 1.85916002e-003 5.40774502e-003 1.99955050e-003
      -6.96708634e-003 -5.86987380e-003 -4.28646524e-003 9.95242037e-004
      2.75901123e-003 2.06698128e-003 -4.58375225e-003 -4.22764011e-003
      -3.88629455e-003 -3.58167250e-004 -5.41277695e-003 2.86492938e-003
      -4.81922505e-003 -6.16411772e-003 -1.63792737e-003
      -1.13956560e-003 1.81112764e-003 5.49622299e-003 -4.34974470e-004
      -1.39956945e-003 -4.43515182e-003 -1.79109746e-003 3.48820235e-003
      3.62898502e-003 3.25264246e-003 -2.72735138e-003 -1.14816925e-004
      -3.25378613e-003 -6.62743580e-003 5.71817113e-003 4.85132355e-003
      9.71690286e-004 -1.55347225e-003 -4.36369469e-003 -1.83901773e-003
      5.33461384e-003 1.64413464e-003 -3.23080714e-003 -1.91744056e-003
      -1.93683698e-003 1.75148284e-003 6.70585269e-003 1.73014752e-003
      -1.44075043e-003 -3.91009124e-003 -1.09572802e-003 2.03627511e-003
      7.10739242e-003 5.78769296e-003 -6.79554476e-004 -4.22862731e-003
      -5.53456892e-004 6.45139080e-004 9.92213935e-003 4.44957055e-003
      -2.23587663e-003 -1.00621097e-002 -2.06538895e-003 3.63054709e-003
      8.59725755e-003 3.20692337e-003 -3.00466828e-003 -4.13535116e-003
      1.28883589e-003 3.75435594e-003 1.02708507e-002 3.24867736e-003
      -2.79676379e-003 -1.02568297e-002 2.28820601e-003 6.63874624e-003
      9.38666333e-003 3.36849666e-003 -4.64549102e-003 -9.23283957e-003
      3.19984066e-003 8.65925290e-003 1.45442421e-002 8.56145844e-003
      2.35737854e-004 -1.23927062e-002 3.89959849e-003 1.23949498e-002
      1.10763712e-002 4.53556422e-003 -2.86185998e-003 -9.61717684e-003
      3.09730112e-003 1.16035240e-002 1.54302726e-002 1.05934786e-002
      -1.84430403e-003 -1.14023387e-002 8.80944717e-004 1.40382135e-002
      2.15448649e-003 3.99118569e-003 3.66762816e-003 -2.43311375e-003
      -6.38712477e-003 1.78723960e-004 2.62876553e-003 3.20662116e-003
      1.67232042e-003 -1.50843849e-003 -5.04938466e-003 3.90842324e-003
      7.57300761e-003 3.41054727e-003 -1.21297396e-003 -2.09344761e-003
      -7.27249449e-003 1.51903951e-003 6.84494944e-003 8.98285944e-004
      -3.93711217e-003 -3.66829056e-003 -8.60653911e-003
      -1.60769618e-003 4.11341636e-004 1.22982427e-003 4.44552070e-003
      -4.06108884e-004 -3.00531951e-003 1.18607772e-004 -6.39723055e-003
      2.03760969e-003 4.83242702e-003 1.37248251e-003 -2.31309887e-003
      -4.35799314e-003 -8.47923569e-004 -1.51345914e-003
      -1.79686456e-003 -4.37291758e-003 -2.68319482e-003 1.60260999e-003
      -5.21956664e-003 -2.91012507e-003 -2.81246984e-003
      -5.16590104e-003 3.11753916e-004 -1.36367825e-003 -6.88685803e-003
      5.06197009e-003 6.90716784e-003 2.40494148e-003 4.16984083e-004
      -9.97962151e-003 -9.62131005e-003 7.96670280e-003 1.07170753e-002
      5.46792708e-003 1.76499982e-003 -1.01312855e-002 -7.07654702e-003
      -3.67300282e-003 1.23967754e-003 2.43695988e-003 7.02407560e-004
      -7.47330952e-003 -7.42603466e-003 6.28762937e-005 9.00739525e-003
      8.78984854e-003 3.02513316e-003 -1.07357288e-002 -1.22771608e-002
      4.35131509e-003 7.91854318e-003 6.90825935e-003 7.98253343e-003
      -8.17520451e-003 -1.15487250e-002 4.47263010e-003 7.57589471e-003
      9.76944715e-003 8.64052027e-003 -8.00267700e-003 -7.26667745e-003
      1.36047660e-003 5.00156544e-003 7.03706546e-003 3.20172636e-003
      -9.81045142e-003 -1.03969965e-002 2.22776271e-003 3.20583908e-003
      7.52509804e-003 1.94899261e-003 -7.33191939e-003 -9.96415224e-003
      3.25792935e-003 3.79897957e-003 8.76663160e-003 9.63785127e-003
      -8.08848906e-003 -6.21935911e-003 5.29485056e-003 2.39679101e-003
      1.13098659e-002 1.05121955e-002 -5.00715803e-003 -1.22989509e-002
      3.00461310e-003 2.33961805e-003 7.52654159e-003 3.36363935e-003
      -1.13306865e-002 -1.09468075e-002 3.38052912e-003 2.93782749e-003
      9.33180097e-003 3.52516538e-003 -7.61262234e-003 -6.07675780e-003
      3.33768758e-003 1.48885848e-003 4.55037691e-003 1.07821198e-002
      -6.71020197e-003 -7.97548145e-003 6.93703722e-003 4.62013856e-003
      2.51053739e-003 4.18631127e-003 -9.61713865e-003 -1.27578843e-002
      5.72469908e-005 -8.40789406e-004 3.39212222e-003 7.03112921e-003
      -7.57231982e-003 -1.32498266e-002 2.47296318e-003 5.51581988e-003
      5.60046546e-003 6.87727472e-003 -1.09634865e-002 -8.99760891e-003
      8.36594030e-003 6.37080101e-003 7.74316071e-003 7.22364150e-003
      -1.18683828e-002 -1.31667601e-002 7.65016489e-003 7.12417020e-003
      9.77024902e-003 5.53834438e-003 -1.39222406e-002 -1.26741789e-002
      7.39647448e-003 5.87128336e-003 8.46315548e-003 2.58930563e-003
      -1.26811443e-002 -1.29909758e-002 7.31776422e-003 6.55709859e-003
      8.33753403e-003 5.06633474e-003 -1.24462014e-002 -3.30911204e-003
      6.29469519e-003 3.72311706e-003 6.32439321e-003 6.29764237e-003
      -1.37894154e-002 -3.60370235e-004 8.13126937e-003 5.40927425e-003
      4.93010320e-003 1.14982889e-003 -1.52008533e-002 -8.23542383e-003
      7.14404648e-003 5.69574162e-003 9.00962390e-003 7.16909068e-003
      -1.30238505e-002 -4.61054128e-003 8.48816987e-003 3.46695096e-003
      1.90911349e-003 -3.18806549e-003 -1.10932877e-002 2.08087469e-004
      6.18073065e-003 3.31014860e-004 -4.16047545e-003 -2.00681947e-003
      -1.09557323e-002 4.64341277e-003 9.10471473e-003 2.36462080e-003
      -2.23303307e-003 1.08200766e-003 1.08656089e-003 2.14625732e-003
      8.04126821e-003 -2.93852249e-003 -3.86855751e-003 -4.92011150e-003
      -5.71456691e-003 6.93156617e-003 6.46087108e-003 -6.14980003e-003
      -3.93487839e-003 -4.08363012e-005 4.04036255e-004 6.83194399e-003
      3.48922098e-003 -5.60640637e-003 -4.93687158e-003 -2.60188803e-003
      2.12933286e-003 1.21760126e-002 1.57835020e-003 -4.12938604e-003
      -6.24546967e-003 -4.52465285e-003 4.43625823e-003 1.13429902e-002
      3.10103409e-003 -5.31267747e-003 -4.91123507e-003 -4.59067291e-003
      2.57812231e-003 1.03143714e-002 3.26212659e-003 -5.43127535e-003
      -4.84719034e-003 -4.92927153e-003 3.49808647e-003 9.18987673e-003
      -1.87553244e-003 -6.84633991e-003 -1.01646390e-002
      -4.38886229e-003 7.28800520e-003 8.78331251e-003 -5.76889794e-003
      -9.83574707e-003 -8.61016475e-003 -1.31665368e-003 1.31004639e-002
      6.43490674e-003 -1.36416219e-003 -8.20858777e-003 -7.68392486e-003
      -4.54911077e-003 6.60450710e-003 1.01922518e-002 -5.22933714e-003
      -7.97590893e-003 -7.86096882e-003 1.01462705e-004 1.37085104e-002
      6.72909105e-003 -4.20984905e-003 -1.28408810e-002 -9.05096810e-003
      -3.78703873e-004 1.21939788e-002 6.64468622e-003 -1.00489706e-002
      -1.30361319e-002 -4.37190151e-003 2.46516010e-003 1.06813768e-002
      9.51712020e-003 -9.20036808e-003 -1.34045836e-002 -2.79926416e-003
      1.78248738e-003 1.40569583e-002 5.11908019e-003 -1.14506204e-002
      -1.06553072e-002 -4.89679724e-003 8.13074782e-003 1.15913982e-002
      3.28117725e-003 -9.09193419e-003 -7.14633940e-003 -2.50241044e-003
      2.42165755e-003 1.07069891e-002 8.28888791e-004 -1.21418377e-002
      -7.53179658e-003 -4.82989103e-003 7.28195359e-004 1.20014418e-002
      3.42560373e-003 -1.08927917e-002 -7.04280008e-003 -2.67709512e-003
      1.64669496e-003 7.32424157e-003 4.31794999e-003 -3.65545880e-003
      -3.97611130e-003 -4.70064627e-003 -1.39635720e-003 6.38489239e-003
      -3.25777917e-003 -5.31940395e-003 -4.64194454e-003
      -2.82491813e-003 -1.02940330e-003 3.61036416e-003 -1.73454138e-003
      -2.54094321e-003 -2.65177968e-003 3.29609407e-004 -2.13666004e-003
      -2.58750422e-003 -9.08228161e-004 -6.05493691e-003
      -5.94385946e-003 -3.36104701e-003 -2.61367601e-003 5.18748863e-003
      7.25019781e-005 -5.17545082e-003 6.03745691e-004 5.97042846e-004
      -3.00736632e-004 4.12454770e-004 -1.15504011e-003 -6.16602926e-003
      -4.39738762e-003 1.36797945e-003 -1.27362157e-003 3.55284126e-003
      -1.70390238e-003 -7.32846884e-003 -6.21810555e-003 1.48823590e-003
      2.63793534e-003 5.73259126e-003 -5.30368241e-004 -5.79616055e-003
      -5.61417895e-004 2.06110836e-003 -1.81918987e-003 -2.38973298e-003
      -4.82459785e-003 -6.13512285e-003 -8.35023005e-004 1.60585623e-003
      -2.14044144e-003 -2.03395099e-003 -1.87202997e-003
      -2.19222042e-003 -7.10153114e-003 2.51010130e-003 -2.38004560e-003
      -1.84903853e-003 3.20513197e-003 5.61824301e-004 -9.21210158e-004
      -3.15136916e-004 -2.01530079e-003 1.87264080e-003 -7.03750923e-003
      -3.48579511e-003 -1.44871767e-003 5.53844357e-003 -4.33556084e-003
      -6.62495475e-003 -2.50172871e-003 -5.57723688e-003 4.52827808e-004
      2.89208046e-003 1.23278878e-003 -5.41064050e-003 2.33825878e-003
      -1.84951851e-003 -7.15347985e-003 1.03886261e-004 1.39602122e-003
      3.38298408e-003 2.53323978e-003 -4.12081974e-003 -4.86485241e-003
      9.03890410e-004 4.55452083e-003 3.31327156e-003 -7.24274083e-004
      -2.36912118e-003 -7.11644627e-003 1.19207683e-003 7.67508335e-003
      1.99731835e-003 1.54972728e-003 -5.82080102e-003 -2.07714294e-003
      2.51220772e-003 9.01829731e-003 3.21976375e-003 5.34923794e-003
      8.86009017e-004 -5.33811655e-003 -3.14503838e-003 5.01598045e-003
      1.98494759e-003 8.27742554e-003 -1.02149055e-003 -5.02201403e-003
      -9.68148839e-003 2.92345812e-003 5.39991027e-003 3.63787892e-003
      -1.51564414e-003 -2.28551147e-003 -1.61705783e-003 8.75030924e-003
      3.28904018e-003 8.08375701e-003 -8.95836391e-004 -3.45568010e-003
      -6.95677195e-003 4.11368487e-003 6.61950279e-003 1.01017356e-002
      3.81977600e-003 -6.37995498e-003 -1.03339870e-002 3.15925601e-004
      7.02675246e-003 1.59965530e-002 1.01508535e-002 -3.83784249e-003
      -1.22571783e-002 -1.05235004e-003 1.14553357e-002 1.16190976e-002
      4.94030677e-003 -5.06579038e-003 -7.63978809e-003 1.04367058e-003
      1.13198683e-002 1.90483555e-002 8.54887813e-003 -5.01362374e-003
      -1.38512198e-002 -1.09924749e-003 1.57682635e-002 5.64328209e-003
      -2.31562299e-003 -2.49165832e-003 -3.24464729e-003
      -1.99050107e-003 5.22141671e-003 3.15431319e-003 -2.46687420e-003
      -3.56179685e-003 -3.48789827e-003 -5.00108581e-003 1.31138170e-003
      4.41173092e-003 -2.86193728e-003 -6.52312126e-004 -3.82106099e-003
      -3.16733657e-003 3.69146955e-003 4.21511568e-003 -1.11204665e-003
      -6.10260945e-003 -4.05244157e-003 -4.01289482e-003 1.02253410e-003
      3.89909744e-003 1.20511814e-003 -1.75942446e-003 -2.22905120e-003
      -6.80497708e-003 2.42521265e-003 -1.36270584e-003 -3.73177836e-003
      -6.36882265e-004 -6.96823408e-004 -6.30433485e-003
      -5.88053896e-004 5.61869144e-003 -1.55351870e-003 -3.72438313e-004
      -2.14878912e-003 -5.83443744e-003 -1.21665094e-003 9.45496140e-004
      -1.71280792e-003 4.14152024e-003 3.19416448e-003 -4.22010431e-003
      -4.07461310e-003 -5.53895393e-003 -2.65498040e-003 2.97374604e-003
      7.12348428e-003 -4.30644117e-003 -5.31615922e-003 -3.45973973e-003
      3.26045323e-003 9.12968256e-003 1.27297528e-002 -1.00375991e-003
      -6.22822437e-003 -3.05323722e-003 -2.40152678e-003 6.73299655e-003
      5.88486064e-003 -7.35455658e-003 -9.60880425e-003 -1.30944618e-003
      3.50096356e-003 1.11051928e-002 1.20187094e-002 -4.23537102e-003
      -8.68748408e-003 -3.56582203e-003 1.12659857e-003 4.18018457e-003
      6.82710996e-003 -1.24581938e-003 -8.71482864e-003 -7.34568201e-003
      1.32360659e-003 2.72204611e-003 4.87276353e-003 -2.23191571e-003
      -8.47260375e-003 -3.10653402e-003 5.08978637e-003 6.25951542e-003
      6.75779814e-003 -1.82107696e-003 -1.10237692e-002 -5.45388274e-003
      1.70580752e-003 6.38645049e-003 5.26467478e-003 1.52743736e-003
      -7.56519381e-003 -8.27481598e-003 3.24608904e-004 1.26694993e-003
      4.57137031e-003 -3.60309874e-004 -1.07948491e-002 -7.11167324e-003
      1.57914171e-003 2.81454530e-003 6.59281015e-003 -3.20402352e-004
      -8.39857291e-003 -9.61349811e-003 -4.41908371e-004 3.64785385e-003
      4.30437364e-003 2.00414588e-003 -8.82096589e-003 -8.27681459e-003
      2.47333664e-003 6.41003996e-003 8.83232709e-003 -6.42292784e-004
      -8.37819651e-003 -6.67020492e-003 2.38221866e-004 1.99305336e-003
      5.27893798e-003 6.48479303e-003 -9.42423660e-003 -9.92577337e-003
      -1.51462131e-003 3.65505530e-003 8.41510203e-003 7.49500748e-003
      -1.18983677e-002 -6.67413883e-003 5.37758833e-003 5.08134905e-003
      6.39624381e-003 2.57781800e-003 -1.14750555e-002 -7.59628182e-003
      2.68510054e-003 9.12910444e-004 4.16370761e-003 4.97952430e-003
      -1.02056796e-002 -8.11441243e-003 2.43835035e-003 -7.05340528e-004
      5.31991851e-003 5.93015132e-003 -1.27440905e-002 -6.78301090e-003
      1.52467447e-003 2.17605429e-003 6.17880048e-003 4.60748328e-003
      -1.01286825e-002 -7.95333367e-003 -1.89571222e-003
      -3.85710667e-003 5.29290736e-003 1.00557320e-002 -6.71832589e-003
      -9.69640166e-003 -5.42785507e-003 -8.74772843e-004 8.23020097e-003
      8.57834332e-003 -5.31092985e-003 -3.37429857e-003 4.83390829e-003
      3.42006958e-003 7.53781945e-003 7.90148973e-003 -9.19107907e-003
      -4.34699981e-003 5.99959772e-003 2.34238384e-003 1.09779408e-004
      -5.85618569e-003 -9.41136200e-003 -1.01943687e-002 1.97948422e-003
      4.42114705e-003 8.42046365e-003 8.11526924e-003 -4.18599928e-003
      -1.27228564e-002 6.01566397e-003 2.12483364e-003 -1.23177003e-003
      -2.41136854e-003 -1.12422481e-002 2.34838156e-003 6.86688768e-003
      -2.93717743e-003 -2.25066114e-003 -3.54697532e-003
      -4.28294856e-003 8.54731072e-003 6.58177957e-003 -7.07261963e-003
      -8.41885514e-004 3.45734693e-003 2.45075324e-003 -5.13710501e-003
      7.88128562e-003 -1.79863302e-004 -3.86795751e-003 -2.83258152e-003
      -1.03670647e-002 6.12846052e-004 4.56435420e-003 -4.90841456e-003
      -1.08754577e-003 3.69626633e-003 -6.28885231e-004 1.27224848e-002
      3.31539800e-003 -9.91625246e-003 -4.79208166e-003 1.47772639e-003
      3.90836177e-003 8.73807538e-003 3.52159073e-003 -6.20975532e-003
      -2.27004359e-003 -4.50493256e-003 1.85093225e-003 2.31519155e-003
      1.83998747e-003 -7.96662271e-003 -3.35550145e-003 4.14328184e-003
      1.98837067e-003 2.24419334e-003 -2.99486594e-004 -9.40012746e-003
      -4.29938128e-003 -1.03781628e-003 3.34491953e-003 1.63821050e-003
      -4.47608763e-003 -4.26118821e-003 -3.32156522e-003
      -5.93163259e-003 3.11844214e-003 8.94857012e-003 -4.20270348e-003
      -5.16410824e-003 -1.28182617e-003 2.42429716e-003 1.25518963e-002
      3.28276888e-003 -6.72370754e-003 -8.77664052e-003 -7.36827869e-003
      -7.01227784e-003 3.34088388e-003 6.74496777e-003 -3.38499813e-004
      -6.35329960e-003 -6.00374211e-003 1.10718317e-003 9.46444646e-003
      4.54939529e-003 -8.09073821e-003 -6.72554038e-003 -1.98269822e-003
      2.46595684e-003 9.34796128e-003 1.27313449e-003 -1.10729001e-002
      -7.24692876e-003 1.81125687e-003 4.38931677e-003 7.14972662e-003
      4.46819514e-003 -3.17117292e-003 -7.31147593e-003 -9.82318725e-003
      -2.97956308e-003 7.11717037e-003 2.01133383e-003 -4.97333519e-003
      -4.42470750e-003 -7.06105772e-003 1.83673692e-004 4.69697593e-003
      1.24593056e-003 -8.02014768e-003 -1.84110762e-003 2.37240898e-003
      1.15816190e-003 2.73769069e-003 3.13055847e-004 -5.76822599e-003
      -1.63126527e-003 -1.44728983e-003 -1.57051883e-003 2.14836583e-003
      6.90572604e-004 -3.76809482e-003 -5.06653264e-003 -3.48950201e-003
      8.79266066e-004 -1.44192672e-004 3.57038155e-003 -4.20083012e-003
      -3.19092860e-003 1.18022610e-004 6.20539300e-004 -4.55779815e-003
      -1.57939488e-004 -7.14221178e-003 -6.76216697e-003
      -2.77562533e-003 5.69418014e-004 6.78332523e-003 4.09695524e-004
      -9.05623846e-003 -2.42577260e-003 2.28792429e-003 1.12462800e-003
      6.29215315e-003 4.93811676e-004 -8.45791586e-003 -5.08178771e-003
      -1.49440404e-003 -1.12792186e-003 -1.57381920e-003 8.45028379e-004
      -1.23217143e-002 -3.23548540e-003 2.30145804e-003 -1.89218449e-003
      1.91342540e-003 -5.47185133e-004 -8.21171794e-003 -2.27416842e-003
      4.57631843e-003 6.19500861e-006 -5.04715026e-005 -3.23873991e-003
      -7.65125500e-003 -1.19822286e-003 4.78411093e-003 4.67291597e-004
      -3.06578865e-003 -7.26070546e-004 -9.43725463e-003
      -1.77199044e-003 4.68419027e-003 1.55952701e-003 1.34324096e-003
      -6.85438840e-003 -1.06063467e-002 3.02570261e-004 9.82446689e-003
      5.98189374e-003 -3.43004917e-003 -2.79436843e-003 -1.81162555e-003
      1.14819180e-004 5.61510911e-003 -3.85807689e-005 -4.15961910e-003
      6.15094963e-004 -1.60585949e-003 -1.00225420e-003 2.22686469e-003
      3.95239284e-003 1.72371126e-003 -6.49665110e-003 -5.12197427e-003
      -5.79743320e-003 4.47556144e-003 3.98714328e-003 -2.45485571e-003
      4.14818898e-003 -2.82553327e-003 -3.85655113e-003 -1.90275256e-003
      3.56605370e-003 2.60367733e-003 -1.30929897e-004 -2.32676556e-003
      -8.85581411e-003 2.83898506e-003 6.09315140e-003 1.47900486e-003
      1.15012657e-003 -3.43459961e-003 -2.48079863e-003 3.69333616e-003
      9.82283242e-003 1.83431990e-003 6.75231963e-003 -2.64611095e-003
      -7.10133370e-003 -1.64266350e-003 1.91149453e-003 1.60803727e-003
      5.22388518e-003 -1.12493057e-003 -4.12375154e-003 1.08149811e-003
      5.95802814e-003 3.48200061e-004 9.85679566e-004 -4.87271580e-004
      -5.45437774e-003 -3.23924189e-003 5.97435096e-003 1.94597989e-003
      7.89179001e-003 -8.57799547e-004 -5.85599523e-003 -6.91645406e-003
      3.56803741e-003 7.53206015e-003 3.39277042e-003 -2.56741093e-003
      -7.26221828e-003 -1.88428268e-003 8.11289717e-003 2.55438220e-003
      4.00111731e-003 -5.07094944e-003 -8.29855911e-003 -4.04547900e-003
      8.77344050e-003 5.95919415e-003 1.05192121e-002 4.36779344e-003
      -7.16946414e-003 -9.13579762e-003 2.76512536e-003 1.01984600e-002
      1.36696091e-002 6.96096895e-003 -7.32288649e-003 -1.49915908e-002
      4.19490086e-003 1.34320855e-002 6.25399128e-003 -5.42916066e-004
      -1.01579484e-002 -5.68739558e-003 1.07242661e-002 1.05240503e-002
      1.20608509e-002 2.93628033e-003 -9.00435913e-003 -1.27443662e-002
      1.06127309e-002 1.42164864e-002 4.70552361e-003 1.98031380e-003
      -8.11026082e-004 -2.27707112e-003 -9.37720481e-003
      -2.89721019e-003 3.70693416e-003 6.13530574e-004 -3.57965124e-003
      -1.77541014e-003 -2.70663365e-003 7.85795623e-004 5.35922591e-003
      3.76749807e-003 -3.02373152e-003 -5.11700008e-003 -4.03564889e-003
      4.07788291e-004 -9.51963710e-004 1.41452800e-003 -5.86964935e-003
      -2.56916624e-003 -5.29398443e-003 -1.05978607e-003 3.26541136e-003
      4.71129868e-004 -8.02230439e-004 -4.22766944e-003 -7.25735025e-003
      -3.05805332e-003 -1.72904774e-003 1.40829396e-003 1.10901622e-002
      4.17525647e-003 -6.68221666e-003 -7.98923336e-003 3.19423387e-003
      -1.45892985e-003 -3.14211473e-003 -3.66061169e-004
      -3.69071029e-003 -4.81950759e-004 4.06605657e-003 4.24956344e-003
      1.04571478e-002 6.74447464e-003 -5.74823050e-003 -7.18426798e-003
      -4.03311336e-003 7.17028335e-004 7.58090848e-003 6.34705881e-003
      -5.81731927e-003 -1.14347506e-002 -5.87362377e-003 6.21502381e-003
      1.07133985e-002 8.12953338e-003 -8.13522283e-003 -1.39074968e-002
      -3.04545159e-004 3.46862199e-003 9.29629523e-003 9.32530314e-003
      -2.21252465e-003 -9.37553495e-003 -5.19567123e-003 5.29388804e-003
      1.35662844e-002 1.18364431e-002 -3.34359217e-003 -1.17370877e-002
      -7.17245741e-003 3.41029861e-003 7.02950498e-003 6.76842872e-003
      -3.39569338e-003 -1.20873433e-002 -8.01242888e-003 7.20550946e-004
      8.17753840e-003 7.65488716e-003 1.08904648e-003 -8.92504212e-003
      -8.97687953e-003 3.27390945e-003 9.79775190e-003 1.11860028e-002
      8.28467077e-004 -1.24508068e-002 -1.06377564e-002 -2.23177369e-003
      7.08008558e-003 1.41743934e-002 -1.18202355e-003 -1.01311225e-002
      -1.19169140e-002 -7.06987863e-004 7.18717463e-003 8.49975832e-003
      1.73180935e-003 -1.11535629e-002 -1.01708220e-002 4.88357712e-003
      9.35812388e-003 1.06971813e-002 -1.55981677e-003 -1.21087478e-002
      -1.14287473e-002 3.16842250e-003 9.31509398e-003 1.31384982e-002
      -3.82495491e-004 -1.37536116e-002 -7.51710450e-003 7.94100761e-003
      1.18815321e-002 1.38416002e-002 8.51696357e-004 -1.07525401e-002
      -5.30073140e-003 6.75940560e-003 9.58389509e-003 8.06520879e-003
      3.03732208e-003 -1.38127003e-002 -9.24615562e-003 6.96269004e-003
      9.10497736e-003 8.09053611e-003 6.04594080e-003 -1.35408966e-002
      -7.18152104e-003 8.49561393e-003 1.07438834e-002 8.84817541e-003
      5.30140358e-004 -1.38625624e-002 -1.47138927e-002 4.97418921e-003
      9.39451437e-003 1.02737192e-002 1.06810848e-003 -1.17389755e-002
      -9.89861879e-003 -1.65042072e-003 1.85755861e-003 8.36807396e-003
      1.05894124e-002 -1.13052959e-002 -1.13958735e-002 -5.00458106e-003
      3.47737363e-003 1.22128231e-002 8.69331323e-003 -7.14158034e-003
      -1.31078996e-002 4.21055796e-004 7.57906865e-003 1.05114346e-002
      9.01729614e-003 -1.10601289e-002 -1.65955834e-002 3.35247070e-003
      9.23515484e-003 9.86334495e-003 7.27359764e-003 -9.42127965e-003
      -1.29598854e-002 3.37706821e-004 5.95710054e-003 1.02792745e-002
      7.46492669e-003 -9.71271750e-003 -1.31170442e-002 1.95976067e-003
      4.24351217e-003 3.26097128e-003 -1.12635852e-003 -1.35823647e-002
      -1.32111469e-002 4.55342140e-003 8.15388653e-003 7.32256984e-003
      3.71088227e-003 -8.52828193e-003 -1.04764570e-002 3.60561628e-003
      4.72129323e-003 4.20696987e-003 -3.24077858e-003 -1.12230610e-002
      -9.03176144e-003 2.58182734e-003 -1.42629759e-003 -2.65884213e-004
      -3.02333559e-004 -1.03364680e-002 5.36888780e-004 3.59130767e-003
      -1.54488289e-003 2.27480754e-003 5.75354742e-003 -2.36441870e-003
      -5.22876624e-003 4.99523943e-004 -5.72785852e-004 1.64913072e-003
      -5.04347449e-003 -5.69208432e-003 1.08998374e-003 1.62074191e-003
      -1.64332148e-003 -4.55126661e-004 -2.34100875e-003 7.53583154e-004
      -2.86305416e-003 -1.01390970e-003 -4.73061297e-003 2.33227736e-003
      4.76312498e-003 -4.38881060e-003 1.15078117e-003 -2.05205800e-003
      -4.82128747e-003 -5.14640519e-003 4.55119368e-003 4.52693598e-003
      2.43374240e-003 -6.96290634e-004 -3.90096870e-003 -4.21868451e-003
      -3.54426191e-003 -4.04267394e-006 6.09381637e-003 2.72522657e-003
      -3.96250235e-003 -6.23793155e-003 1.80614239e-003 7.62571488e-003
      5.42712724e-003 -8.43803107e-004 -1.02014709e-002 -9.69791505e-003
      9.45027336e-004 6.24268828e-003 7.43612275e-003 2.82478728e-003
      -7.65241077e-003 -1.05658323e-002 1.71382620e-004 5.29695395e-003
      8.27459712e-003 5.44474600e-003 -6.55819802e-003 -8.74333177e-003
      1.23704085e-003 7.79234013e-003 5.56242745e-003 5.28383441e-003
      -8.59186519e-003 -8.55818484e-003 -1.31149648e-003 1.78634573e-003
      4.69486788e-003 3.89361684e-003 -4.59036697e-003 -9.79267154e-003
      -5.07159566e-004 5.09755313e-003 7.59548740e-003 3.96030489e-003
      -5.74033754e-003 -7.51103135e-003 4.20408789e-004 7.72364670e-003
      4.77900635e-003 4.59935609e-003 -5.34274569e-003 -9.53213405e-003
      -2.12457008e-003 9.02009197e-005 9.81991366e-003 1.42054097e-003
      -3.35904374e-003 -7.20208371e-003 -1.32730580e-003 5.99964336e-003
      5.27219800e-003 1.66893436e-003 -4.45633056e-003 -3.88397486e-003
      1.88271399e-003 4.61489148e-003 3.01982928e-003 -3.46664758e-003
      -2.22483114e-003 -7.23612553e-004 1.09497819e-003 -1.15818961e-003
      7.92604312e-003 -1.48870784e-003 -8.50584265e-003 -3.94364214e-003
      -2.80166656e-004 5.33953635e-003 5.87147486e-004 -5.52827446e-003
      -7.30750430e-003 -1.90168282e-003 -1.14304130e-003 2.07847170e-005
      6.24900509e-004 -5.18404320e-003 -7.82661547e-004 -6.41969731e-004
      4.37790120e-004 -1.22401724e-003 -1.14190159e-003 -8.01834464e-003
      -2.82229128e-004 2.43977434e-003 -4.04361752e-004 3.42439464e-003
      -1.80565112e-003 -8.15497711e-003 -4.95994138e-003
      -3.27720027e-003 -1.03445585e-004 1.59546023e-003 -3.56065738e-003
      -1.07130110e-002 -3.77101940e-003 2.16562976e-003 2.48160842e-003
      3.24215298e-003 -2.69793207e-003 -6.17955858e-003 -1.01400155e-003
      3.64352250e-003 -1.65215658e-003 7.85090553e-004 -6.99725235e-003
      -8.04681797e-003 2.23872112e-003 8.07749107e-003 3.22733098e-003
      -9.89470514e-004 -2.27462640e-003 -7.35778548e-003
      -1.88489666e-003 4.68903780e-003 -1.21617143e-003 1.09847006e-003
      -1.81594165e-003 -5.07518230e-003 -2.18788075e-004 4.41931468e-003
      -1.08619570e-003 1.91626546e-004 -5.41917793e-003 -5.92240738e-003
      -6.72547962e-004 6.32784842e-003 2.75632576e-003 -1.40875345e-003
      5.68264956e-003 9.28148220e-004 -4.31459490e-003 2.85859540e-004
      -1.93117524e-003 2.93184747e-003 -7.75156601e-004 -5.49908541e-003
      -7.11226230e-003 -8.51928606e-004 2.05861893e-003 -2.28653452e-003
      5.82452118e-003 -1.17954612e-003 -4.23446996e-003 -2.65914761e-003
      1.31296623e-003 4.29040892e-003 7.68204127e-003 6.88107044e-004
      -7.02447211e-003 -1.93806249e-003 -1.25868677e-003 3.20638833e-003
      7.13611208e-003 -1.26170949e-003 -5.92516316e-003 1.00825171e-004
      5.01103885e-003 3.85934534e-003 7.18395971e-003 -1.47812034e-003
      -5.81575045e-003 -5.37537504e-003 -6.21063402e-004 7.01706763e-003
      5.24902856e-003 -4.54028789e-003 -5.70805511e-003 -2.71245139e-003
      1.86842168e-003 1.94311026e-003 6.60911296e-003 -1.23231311e-003
      -9.25374590e-003 1.23781222e-003 6.33316487e-003 3.07664461e-003
      4.74291621e-003 -3.47408280e-003 -1.19017558e-002 -4.44648881e-003
      9.05340072e-003 4.51996690e-003 2.88077304e-003 -3.34389415e-003
      -9.44835227e-003 2.32279184e-003 3.79596394e-003 7.68512837e-004
      2.05265242e-003 -4.38196864e-003 -1.25252297e-002 -2.56765448e-003
      1.06623732e-002 5.05297864e-003 5.80658484e-003 -6.97506126e-004
      -1.15813594e-002 -3.75988311e-003 1.26393074e-002 5.83766168e-003
      9.91351809e-003 1.21730333e-003 -9.98554099e-003 -1.19517101e-002
      8.90658237e-003 1.17873400e-002 9.20125749e-003 -1.13474589e-003
      -9.56980046e-003 -6.93096919e-003 1.46842711e-002 8.70935060e-003
      1.07448408e-002 2.57141585e-003 -7.90880807e-003 -1.13592334e-002
      7.97368027e-003 1.09392945e-002 6.54519349e-003 1.37129554e-003
      -5.01228869e-003 -7.24777579e-003 -7.72663951e-003 2.22820789e-003
      -7.86005752e-004 -7.20217358e-004 -6.19967375e-003
      -8.01407360e-003 -8.18029046e-003 2.20962480e-004 1.32577727e-002
      1.20397680e-003 -4.04726854e-003 -7.41608627e-003 -4.91449516e-003
      6.68000150e-003 1.04973568e-002 -1.12419417e-004 -4.03612014e-003
      -7.71894911e-003 -9.36658494e-003 6.87791687e-003 -1.01137313e-003
      -1.94399850e-003 -5.34803513e-003 -5.20076510e-003
      -7.40783522e-003 -2.01310986e-003 -1.29190681e-003 7.67796068e-004
      2.37509329e-003 1.92313094e-003 -5.23911137e-003 -1.83982565e-003
      8.45146459e-003 9.91769717e-004 -5.48139028e-003 -6.44737715e-003
      -6.90490333e-003 7.13735772e-003 6.28213631e-003 2.30339146e-003
      -2.77406955e-003 -3.24338721e-003 -1.43595820e-003 4.13655257e-003
